<?xml version="1.0"?>
<opencv_storage>
<stage3>
  <maxWeakCount>19</maxWeakCount>
  <stageThreshold>-2.4390859603881836e+00</stageThreshold>
  <weakClassifiers>
    <_>
      <internalNodes>
        0 -1 15582 2.6716846227645874e-01</internalNodes>
      <leafValues>
        -7.2880673408508301e-01 7.3249739408493042e-01</leafValues></_>
    <_>
      <internalNodes>
        0 -1 23172 1.0785057544708252e+00</internalNodes>
      <leafValues>
        -3.8528817892074585e-01 4.4147703051567078e-01</leafValues></_>
    <_>
      <internalNodes>
        0 -1 592 6.9436477497220039e-03</internalNodes>
      <leafValues>
        1.6036377847194672e-01 -7.7449023723602295e-01</leafValues></_>
    <_>
      <internalNodes>
        0 -1 264796 -2.2163629531860352e-02</internalNodes>
      <leafValues>
        4.8492166399955750e-01 -2.7667269110679626e-01</leafValues></_>
    <_>
      <internalNodes>
        0 -1 26920 1.7041450738906860e-01</internalNodes>
      <leafValues>
        -2.7211493253707886e-01 5.0902277231216431e-01</leafValues></_>
    <_>
      <internalNodes>
        0 -1 146051 1.1300936341285706e-01</internalNodes>
      <leafValues>
        -2.8861236572265625e-01 4.4230240583419800e-01</leafValues></_>
    <_>
      <internalNodes>
        0 -1 87998 1.0227260738611221e-01</internalNodes>
      <leafValues>
        -1.7830474674701691e-01 6.9400787353515625e-01</leafValues></_>
    <_>
      <internalNodes>
        0 -1 22378 1.1058580130338669e-02</internalNodes>
      <leafValues>
        1.5377110242843628e-01 -8.0198454856872559e-01</leafValues></_>
    <_>
      <internalNodes>
        0 -1 3111 2.4988811463117599e-02</internalNodes>
      <leafValues>
        1.1734497547149658e-01 -7.7671700716018677e-01</leafValues></_>
    <_>
      <internalNodes>
        0 -1 1083 -7.7340388670563698e-03</internalNodes>
      <leafValues>
        -7.3306667804718018e-01 1.0128667205572128e-01</leafValues></_>
    <_>
      <internalNodes>
        0 -1 111192 2.4441349506378174e-01</internalNodes>
      <leafValues>
        -1.4155623316764832e-01 7.1510463953018188e-01</leafValues></_>
    <_>
      <internalNodes>
        0 -1 1457 3.0559021979570389e-03</internalNodes>
      <leafValues>
        -5.4983621835708618e-01 1.6558311879634857e-01</leafValues></_>
    <_>
      <internalNodes>
        0 -1 53 1.3538701459765434e-02</internalNodes>
      <leafValues>
        1.2718392908573151e-01 -6.9957000017166138e-01</leafValues></_>
    <_>
      <internalNodes>
        0 -1 34991 -2.0121064782142639e-01</internalNodes>
      <leafValues>
        2.1930661797523499e-01 -4.0121731162071228e-01</leafValues></_>
    <_>
      <internalNodes>
        0 -1 86010 8.2215415313839912e-03</internalNodes>
      <leafValues>
        1.0644045472145081e-01 -7.5568646192550659e-01</leafValues></_>
    <_>
      <internalNodes>
        0 -1 88256 1.4076304435729980e-01</internalNodes>
      <leafValues>
        -3.1372389197349548e-01 2.2932022809982300e-01</leafValues></_>
    <_>
      <internalNodes>
        0 -1 71724 -2.7475562691688538e-01</internalNodes>
      <leafValues>
        7.1452522277832031e-01 -1.1691124737262726e-01</leafValues></_>
    <_>
      <internalNodes>
        0 -1 190399 1.1317245662212372e-04</internalNodes>
      <leafValues>
        1.8648391962051392e-01 -4.4374543428421021e-01</leafValues></_>
    <_>
      <internalNodes>
        0 -1 102774 4.8844788223505020e-02</internalNodes>
      <leafValues>
        -1.1122511327266693e-01 6.4919024705886841e-01</leafValues></_></weakClassifiers></stage3>
</opencv_storage>
