<?xml version="1.0"?>
<opencv_storage>
<stage17>
  <maxWeakCount>100</maxWeakCount>
  <stageThreshold>-1.7997410297393799e+00</stageThreshold>
  <weakClassifiers>
    <_>
      <internalNodes>
        0 -1 28751 -5.5468276143074036e-02</internalNodes>
      <leafValues>
        -1.7189189791679382e-01 -6.3802242279052734e-01</leafValues></_>
    <_>
      <internalNodes>
        0 -1 173427 5.5961540056159720e-05</internalNodes>
      <leafValues>
        1.0052123665809631e-01 -2.4629984796047211e-01</leafValues></_>
    <_>
      <internalNodes>
        0 -1 66789 2.8691390156745911e-01</internalNodes>
      <leafValues>
        -1.6185440123081207e-01 2.1811632812023163e-01</leafValues></_>
    <_>
      <internalNodes>
        0 -1 156402 4.1593844798626378e-05</internalNodes>
      <leafValues>
        9.1012738645076752e-02 -2.2990174591541290e-01</leafValues></_>
    <_>
      <internalNodes>
        0 -1 91433 -1.1678840965032578e-02</internalNodes>
      <leafValues>
        2.8442654013633728e-01 -6.8982556462287903e-02</leafValues></_>
    <_>
      <internalNodes>
        0 -1 159572 2.1950919181108475e-03</internalNodes>
      <leafValues>
        5.5779147893190384e-02 -3.3251947164535522e-01</leafValues></_>
    <_>
      <internalNodes>
        0 -1 159865 -2.0248289220035076e-03</internalNodes>
      <leafValues>
        1.9143703579902649e-01 -9.8561368882656097e-02</leafValues></_>
    <_>
      <internalNodes>
        0 -1 149462 2.7718637138605118e-03</internalNodes>
      <leafValues>
        -1.2383162975311279e-01 1.7514823377132416e-01</leafValues></_>
    <_>
      <internalNodes>
        0 -1 191669 -3.6590907257050276e-04</internalNodes>
      <leafValues>
        -7.6694242656230927e-02 2.5524818897247314e-01</leafValues></_>
    <_>
      <internalNodes>
        0 -1 959 5.9262484312057495e-02</internalNodes>
      <leafValues>
        4.7074355185031891e-02 -3.4836429357528687e-01</leafValues></_>
    <_>
      <internalNodes>
        0 -1 66098 6.6694302950054407e-04</internalNodes>
      <leafValues>
        -3.1386566162109375e-01 6.4587123692035675e-02</leafValues></_>
    <_>
      <internalNodes>
        0 -1 243315 3.8597267121076584e-05</internalNodes>
      <leafValues>
        6.9610111415386200e-02 -2.4822753667831421e-01</leafValues></_>
    <_>
      <internalNodes>
        0 -1 142166 -1.5399545431137085e-02</internalNodes>
      <leafValues>
        -5.7257789373397827e-01 3.0068270862102509e-02</leafValues></_>
    <_>
      <internalNodes>
        0 -1 17133 3.2042270898818970e-01</internalNodes>
      <leafValues>
        -5.7928174734115601e-02 3.5898044705390930e-01</leafValues></_>
    <_>
      <internalNodes>
        0 -1 78479 -4.0275432169437408e-02</internalNodes>
      <leafValues>
        3.1777429580688477e-01 -7.1272723376750946e-02</leafValues></_>
    <_>
      <internalNodes>
        0 -1 268075 8.1656603142619133e-03</internalNodes>
      <leafValues>
        -5.9948381036520004e-02 3.7075871229171753e-01</leafValues></_>
    <_>
      <internalNodes>
        0 -1 137432 1.2861641123890877e-02</internalNodes>
      <leafValues>
        -1.6636928915977478e-01 1.2328141182661057e-01</leafValues></_>
    <_>
      <internalNodes>
        0 -1 152335 1.2414231151342392e-01</internalNodes>
      <leafValues>
        4.6107780188322067e-02 -3.8646748661994934e-01</leafValues></_>
    <_>
      <internalNodes>
        0 -1 260090 -1.8128246068954468e-02</internalNodes>
      <leafValues>
        4.2753782868385315e-01 -4.8893418163061142e-02</leafValues></_>
    <_>
      <internalNodes>
        0 -1 130839 4.0279645472764969e-03</internalNodes>
      <leafValues>
        5.6712690740823746e-02 -3.0832517147064209e-01</leafValues></_>
    <_>
      <internalNodes>
        0 -1 88454 -4.0893274545669556e-01</internalNodes>
      <leafValues>
        -9.4297093152999878e-01 1.3749034143984318e-02</leafValues></_>
    <_>
      <internalNodes>
        0 -1 88275 -2.0746449008584023e-03</internalNodes>
      <leafValues>
        1.3207156956195831e-01 -1.2759748101234436e-01</leafValues></_>
    <_>
      <internalNodes>
        0 -1 260571 -4.3873917311429977e-03</internalNodes>
      <leafValues>
        3.1475150585174561e-01 -5.2304014563560486e-02</leafValues></_>
    <_>
      <internalNodes>
        0 -1 209105 7.6732281595468521e-03</internalNodes>
      <leafValues>
        -7.2874136269092560e-02 2.0236657559871674e-01</leafValues></_>
    <_>
      <internalNodes>
        0 -1 46660 1.6498525440692902e-01</internalNodes>
      <leafValues>
        -8.3740890026092529e-02 2.1824714541435242e-01</leafValues></_>
    <_>
      <internalNodes>
        0 -1 190151 1.5143620967864990e-01</internalNodes>
      <leafValues>
        -5.1647622138261795e-02 3.6781871318817139e-01</leafValues></_>
    <_>
      <internalNodes>
        0 -1 149760 4.5219186693429947e-02</internalNodes>
      <leafValues>
        -7.3900111019611359e-02 2.2617033123970032e-01</leafValues></_>
    <_>
      <internalNodes>
        0 -1 239175 5.4116686806082726e-04</internalNodes>
      <leafValues>
        1.0673491656780243e-01 -1.5846166014671326e-01</leafValues></_>
    <_>
      <internalNodes>
        0 -1 193561 6.7487065680325031e-03</internalNodes>
      <leafValues>
        -8.3711579442024231e-02 1.9810557365417480e-01</leafValues></_>
    <_>
      <internalNodes>
        0 -1 70390 8.1421378999948502e-03</internalNodes>
      <leafValues>
        4.2377993464469910e-02 -3.9920860528945923e-01</leafValues></_>
    <_>
      <internalNodes>
        0 -1 156995 9.6508256319793873e-06</internalNodes>
      <leafValues>
        6.9579809904098511e-02 -2.0917990803718567e-01</leafValues></_>
    <_>
      <internalNodes>
        0 -1 102845 -2.1728119254112244e-01</internalNodes>
      <leafValues>
        6.3354569673538208e-01 -2.7653070166707039e-02</leafValues></_>
    <_>
      <internalNodes>
        0 -1 23379 -6.4257504418492317e-03</internalNodes>
      <leafValues>
        -4.1986584663391113e-01 3.9227269589900970e-02</leafValues></_>
    <_>
      <internalNodes>
        0 -1 108049 1.0422231629490852e-02</internalNodes>
      <leafValues>
        -3.3471830189228058e-02 5.2908021211624146e-01</leafValues></_>
    <_>
      <internalNodes>
        0 -1 102280 6.0878386721014977e-03</internalNodes>
      <leafValues>
        -5.7605259120464325e-02 2.5509759783744812e-01</leafValues></_>
    <_>
      <internalNodes>
        0 -1 103413 -6.6377571783959866e-05</internalNodes>
      <leafValues>
        1.8493531644344330e-01 -9.7389198839664459e-02</leafValues></_>
    <_>
      <internalNodes>
        0 -1 337 5.5432908236980438e-02</internalNodes>
      <leafValues>
        2.1895833313465118e-02 -6.7556947469711304e-01</leafValues></_>
    <_>
      <internalNodes>
        0 -1 162403 -2.0653195679187775e-02</internalNodes>
      <leafValues>
        -3.6609783768653870e-01 3.5541310906410217e-02</leafValues></_>
    <_>
      <internalNodes>
        0 -1 72400 3.9281826466321945e-02</internalNodes>
      <leafValues>
        -1.2455582618713379e-01 1.3144722580909729e-01</leafValues></_>
    <_>
      <internalNodes>
        0 -1 150362 -2.2201780229806900e-03</internalNodes>
      <leafValues>
        2.9283314943313599e-01 -5.9320226311683655e-02</leafValues></_>
    <_>
      <internalNodes>
        0 -1 192105 1.0752170965133701e-05</internalNodes>
      <leafValues>
        6.4495489001274109e-02 -2.6078015565872192e-01</leafValues></_>
    <_>
      <internalNodes>
        0 -1 221789 2.7671892894431949e-04</internalNodes>
      <leafValues>
        -5.9859365224838257e-02 2.7120882272720337e-01</leafValues></_>
    <_>
      <internalNodes>
        0 -1 143168 1.4617122709751129e-02</internalNodes>
      <leafValues>
        3.6189347505569458e-02 -4.4545334577560425e-01</leafValues></_>
    <_>
      <internalNodes>
        0 -1 219412 -8.3073246059939265e-05</internalNodes>
      <leafValues>
        -7.1155592799186707e-02 2.1734742820262909e-01</leafValues></_>
    <_>
      <internalNodes>
        0 -1 223771 1.4738963544368744e-01</internalNodes>
      <leafValues>
        -4.8625692725181580e-02 3.5274711251258850e-01</leafValues></_>
    <_>
      <internalNodes>
        0 -1 122634 -1.0191210359334946e-01</internalNodes>
      <leafValues>
        -8.0271750688552856e-01 2.0160047337412834e-02</leafValues></_>
    <_>
      <internalNodes>
        0 -1 154002 2.8214607387781143e-02</internalNodes>
      <leafValues>
        1.9441477954387665e-02 -6.1109489202499390e-01</leafValues></_>
    <_>
      <internalNodes>
        0 -1 103391 9.7239986062049866e-02</internalNodes>
      <leafValues>
        1.5277716331183910e-02 -7.5990641117095947e-01</leafValues></_>
    <_>
      <internalNodes>
        0 -1 160750 -3.4045643405988812e-04</internalNodes>
      <leafValues>
        2.3994082212448120e-01 -6.2628611922264099e-02</leafValues></_>
    <_>
      <internalNodes>
        0 -1 177377 1.1804323003161699e-04</internalNodes>
      <leafValues>
        6.0816362500190735e-02 -2.6789876818656921e-01</leafValues></_>
    <_>
      <internalNodes>
        0 -1 204641 -1.6721289139240980e-03</internalNodes>
      <leafValues>
        2.0352253317832947e-01 -8.4968693554401398e-02</leafValues></_>
    <_>
      <internalNodes>
        0 -1 212931 -2.6165670715272427e-03</internalNodes>
      <leafValues>
        -1.0452251881361008e-01 1.5834234654903412e-01</leafValues></_>
    <_>
      <internalNodes>
        0 -1 269145 9.7576323896646500e-03</internalNodes>
      <leafValues>
        7.7383637428283691e-02 -1.9910672307014465e-01</leafValues></_>
    <_>
      <internalNodes>
        0 -1 6 -9.8616990726441145e-05</internalNodes>
      <leafValues>
        1.9509863853454590e-01 -8.3605937659740448e-02</leafValues></_>
    <_>
      <internalNodes>
        0 -1 64879 -2.0050215534865856e-03</internalNodes>
      <leafValues>
        -2.1006935834884644e-01 6.8616814911365509e-02</leafValues></_>
    <_>
      <internalNodes>
        0 -1 43436 3.8295946433208883e-04</internalNodes>
      <leafValues>
        -4.6763006597757339e-02 3.4465816617012024e-01</leafValues></_>
    <_>
      <internalNodes>
        0 -1 208304 -1.1443716939538717e-03</internalNodes>
      <leafValues>
        -2.2736524045467377e-01 7.5290568172931671e-02</leafValues></_>
    <_>
      <internalNodes>
        0 -1 274935 -1.0202054545516148e-04</internalNodes>
      <leafValues>
        1.7748066782951355e-01 -8.9807823300361633e-02</leafValues></_>
    <_>
      <internalNodes>
        0 -1 190688 -9.8921391327166930e-06</internalNodes>
      <leafValues>
        -1.7251564562320709e-01 9.3516394495964050e-02</leafValues></_>
    <_>
      <internalNodes>
        0 -1 153141 1.3437435030937195e-01</internalNodes>
      <leafValues>
        3.8461536169052124e-02 -3.8721334934234619e-01</leafValues></_>
    <_>
      <internalNodes>
        0 -1 243199 -1.4484762505162507e-04</internalNodes>
      <leafValues>
        1.0508105158805847e-01 -1.5639828145503998e-01</leafValues></_>
    <_>
      <internalNodes>
        0 -1 175113 9.8921391327166930e-06</internalNodes>
      <leafValues>
        6.4386650919914246e-02 -2.4948970973491669e-01</leafValues></_>
    <_>
      <internalNodes>
        0 -1 119120 2.7029826305806637e-03</internalNodes>
      <leafValues>
        -1.1612690240144730e-01 1.3000471889972687e-01</leafValues></_>
    <_>
      <internalNodes>
        0 -1 273600 -1.8484869506210089e-03</internalNodes>
      <leafValues>
        -2.4919712543487549e-01 6.7811779677867889e-02</leafValues></_>
    <_>
      <internalNodes>
        0 -1 141758 2.9470543377101421e-03</internalNodes>
      <leafValues>
        -3.0830809846520424e-02 4.8876172304153442e-01</leafValues></_>
    <_>
      <internalNodes>
        0 -1 40592 -7.5692627578973770e-03</internalNodes>
      <leafValues>
        -5.6115597486495972e-01 3.0150223523378372e-02</leafValues></_>
    <_>
      <internalNodes>
        0 -1 107346 -1.2617933098226786e-03</internalNodes>
      <leafValues>
        1.1435431987047195e-01 -1.3709238171577454e-01</leafValues></_>
    <_>
      <internalNodes>
        0 -1 195403 5.9221452102065086e-03</internalNodes>
      <leafValues>
        -1.0421537607908249e-01 1.5398912131786346e-01</leafValues></_>
    <_>
      <internalNodes>
        0 -1 269649 -5.3459666669368744e-03</internalNodes>
      <leafValues>
        -2.5632360577583313e-01 6.9164738059043884e-02</leafValues></_>
    <_>
      <internalNodes>
        0 -1 240847 -1.4787104725837708e-01</internalNodes>
      <leafValues>
        4.6522995829582214e-01 -3.7827648222446442e-02</leafValues></_>
    <_>
      <internalNodes>
        0 -1 36731 -1.1983428848907351e-03</internalNodes>
      <leafValues>
        3.0571928620338440e-01 -4.3136503547430038e-02</leafValues></_>
    <_>
      <internalNodes>
        0 -1 92 -9.3980636447668076e-03</internalNodes>
      <leafValues>
        -8.7557852268218994e-01 1.8744723871350288e-02</leafValues></_>
    <_>
      <internalNodes>
        0 -1 254651 -3.8031896110624075e-04</internalNodes>
      <leafValues>
        2.9713597893714905e-01 -5.2677657455205917e-02</leafValues></_>
    <_>
      <internalNodes>
        0 -1 105519 -3.1313740182667971e-03</internalNodes>
      <leafValues>
        -2.4559478461742401e-01 7.2981014847755432e-02</leafValues></_>
    <_>
      <internalNodes>
        0 -1 159998 1.9868907111231238e-04</internalNodes>
      <leafValues>
        -1.5303565561771393e-01 9.4887204468250275e-02</leafValues></_>
    <_>
      <internalNodes>
        0 -1 273370 2.6619117124937475e-04</internalNodes>
      <leafValues>
        -6.5626889467239380e-02 2.2577023506164551e-01</leafValues></_>
    <_>
      <internalNodes>
        0 -1 113478 -9.6160043030977249e-03</internalNodes>
      <leafValues>
        -7.6988416910171509e-01 2.1188290789723396e-02</leafValues></_>
    <_>
      <internalNodes>
        0 -1 142683 1.8374521750956774e-03</internalNodes>
      <leafValues>
        8.6429506540298462e-02 -1.5539589524269104e-01</leafValues></_>
    <_>
      <internalNodes>
        0 -1 84985 -1.3333043898455799e-04</internalNodes>
      <leafValues>
        1.7369459569454193e-01 -8.5738644003868103e-02</leafValues></_>
    <_>
      <internalNodes>
        0 -1 84985 1.0234359069727361e-04</internalNodes>
      <leafValues>
        -9.0122506022453308e-02 1.9090235233306885e-01</leafValues></_>
    <_>
      <internalNodes>
        0 -1 22076 -3.9345133118331432e-03</internalNodes>
      <leafValues>
        -1.8571552634239197e-01 9.6859574317932129e-02</leafValues></_>
    <_>
      <internalNodes>
        0 -1 74862 8.2521028816699982e-03</internalNodes>
      <leafValues>
        2.4681856855750084e-02 -5.5993783473968506e-01</leafValues></_>
    <_>
      <internalNodes>
        0 -1 143486 -2.3922093212604523e-02</internalNodes>
      <leafValues>
        5.3029942512512207e-01 -2.9789904132485390e-02</leafValues></_>
    <_>
      <internalNodes>
        0 -1 246124 -2.2085877135396004e-02</internalNodes>
      <leafValues>
        2.6192334294319153e-01 -5.2282717078924179e-02</leafValues></_>
    <_>
      <internalNodes>
        0 -1 23729 2.3213028907775879e-01</internalNodes>
      <leafValues>
        -6.4661897718906403e-02 2.4805890023708344e-01</leafValues></_>
    <_>
      <internalNodes>
        0 -1 190199 -4.0224280382972211e-05</internalNodes>
      <leafValues>
        -2.0537780225276947e-01 8.6073845624923706e-02</leafValues></_>
    <_>
      <internalNodes>
        0 -1 247626 5.6724403053522110e-02</internalNodes>
      <leafValues>
        1.5112014487385750e-02 -8.4920901060104370e-01</leafValues></_>
    <_>
      <internalNodes>
        0 -1 190233 -4.3617696501314640e-03</internalNodes>
      <leafValues>
        5.1980793476104736e-01 -3.4530501812696457e-02</leafValues></_>
    <_>
      <internalNodes>
        0 -1 38058 -2.3949849605560303e-01</internalNodes>
      <leafValues>
        4.5686873793601990e-01 -3.0761720612645149e-02</leafValues></_>
    <_>
      <internalNodes>
        0 -1 88611 -4.5694908499717712e-01</internalNodes>
      <leafValues>
        -7.7330553531646729e-01 2.1543670445680618e-02</leafValues></_>
    <_>
      <internalNodes>
        0 -1 150487 1.1483451351523399e-02</internalNodes>
      <leafValues>
        -6.9620013236999512e-02 2.3534451425075531e-01</leafValues></_>
    <_>
      <internalNodes>
        0 -1 197815 2.3350901901721954e-03</internalNodes>
      <leafValues>
        -4.7652214765548706e-02 3.4535092115402222e-01</leafValues></_>
    <_>
      <internalNodes>
        0 -1 195476 -5.0487429834902287e-03</internalNodes>
      <leafValues>
        3.6862218379974365e-01 -4.4552322477102280e-02</leafValues></_>
    <_>
      <internalNodes>
        0 -1 273988 9.7397845238447189e-03</internalNodes>
      <leafValues>
        2.6998421177268028e-02 -5.6275868415832520e-01</leafValues></_>
    <_>
      <internalNodes>
        0 -1 246703 1.4469644054770470e-02</internalNodes>
      <leafValues>
        1.3688603416085243e-02 -8.5342919826507568e-01</leafValues></_>
    <_>
      <internalNodes>
        0 -1 392 1.7878450453281403e-02</internalNodes>
      <leafValues>
        4.5375324785709381e-02 -3.0323141813278198e-01</leafValues></_>
    <_>
      <internalNodes>
        0 -1 253494 2.3126045707613230e-03</internalNodes>
      <leafValues>
        -3.7622846662998199e-02 3.9218389987945557e-01</leafValues></_>
    <_>
      <internalNodes>
        0 -1 123668 -1.8302905373275280e-03</internalNodes>
      <leafValues>
        -2.2841086983680725e-01 7.0010267198085785e-02</leafValues></_>
    <_>
      <internalNodes>
        0 -1 174579 -2.4289451539516449e-02</internalNodes>
      <leafValues>
        5.8271807432174683e-01 -2.7028487995266914e-02</leafValues></_>
    <_>
      <internalNodes>
        0 -1 276423 -3.4720194526016712e-03</internalNodes>
      <leafValues>
        -2.2618559002876282e-01 6.9069147109985352e-02</leafValues></_></weakClassifiers></stage17>
</opencv_storage>
