<?xml version="1.0"?>
<opencv_storage>
<cascade>
  <stageType>BOOST</stageType>
  <featureType>HOG</featureType>
  <height>40</height>
  <width>40</width>
  <stageParams>
    <boostType>GAB</boostType>
    <minHitRate>9.4999998807907104e-01</minHitRate>
    <maxFalseAlarm>3.0000001192092896e-01</maxFalseAlarm>
    <weightTrimRate>9.4999999999999996e-01</weightTrimRate>
    <maxDepth>1</maxDepth>
    <maxWeakCount>100</maxWeakCount></stageParams>
  <featureParams>
    <maxCatCount>0</maxCatCount>
    <featSize>36</featSize></featureParams>
  <stageNum>6</stageNum>
  <stages>
    <!-- stage 0 -->
    <_>
      <maxWeakCount>6</maxWeakCount>
      <stageThreshold>-4.0909314155578613e-01</stageThreshold>
      <weakClassifiers>
        <_>
          <internalNodes>
            0 -1 34 3.2226234674453735e-02</internalNodes>
          <leafValues>
            -4.9553570151329041e-01 6.3095235824584961e-01</leafValues></_>
        <_>
          <internalNodes>
            0 -1 33 2.8132185339927673e-02</internalNodes>
          <leafValues>
            -3.3589547872543335e-01 6.5897059440612793e-01</leafValues></_>
        <_>
          <internalNodes>
            0 -1 22 1.0614830069243908e-02</internalNodes>
          <leafValues>
            -9.2483687400817871e-01 2.1581956744194031e-01</leafValues></_>
        <_>
          <internalNodes>
            0 -1 23 2.6456989347934723e-02</internalNodes>
          <leafValues>
            4.0980559587478638e-01 -3.7670710682868958e-01</leafValues></_>
        <_>
          <internalNodes>
            0 -1 36 1.3302331790328026e-02</internalNodes>
          <leafValues>
            -9.5226538181304932e-01 1.8172830343246460e-01</leafValues></_>
        <_>
          <internalNodes>
            0 -1 19 2.9635682702064514e-02</internalNodes>
          <leafValues>
            -3.8501545786857605e-01 4.6838456392288208e-01</leafValues></_></weakClassifiers></_>
    <!-- stage 1 -->
    <_>
      <maxWeakCount>5</maxWeakCount>
      <stageThreshold>-5.9408050775527954e-01</stageThreshold>
      <weakClassifiers>
        <_>
          <internalNodes>
            0 -1 11 1.6029752790927887e-02</internalNodes>
          <leafValues>
            6.6666668653488159e-01 -5.4128438234329224e-01</leafValues></_>
        <_>
          <internalNodes>
            0 -1 29 2.9492666944861412e-02</internalNodes>
          <leafValues>
            4.3790754675865173e-01 -5.3670269250869751e-01</leafValues></_>
        <_>
          <internalNodes>
            0 -1 28 3.2473038882017136e-02</internalNodes>
          <leafValues>
            3.8684883713722229e-01 -5.0774616003036499e-01</leafValues></_>
        <_>
          <internalNodes>
            0 -1 2 8.2176895812153816e-03</internalNodes>
          <leafValues>
            6.5119963884353638e-01 -2.1121177077293396e-01</leafValues></_>
        <_>
          <internalNodes>
            0 -1 37 3.5359032452106476e-02</internalNodes>
          <leafValues>
            3.0826956033706665e-01 -4.9591574072837830e-01</leafValues></_></weakClassifiers></_>
    <!-- stage 2 -->
    <_>
      <maxWeakCount>7</maxWeakCount>
      <stageThreshold>-5.5414760112762451e-01</stageThreshold>
      <weakClassifiers>
        <_>
          <internalNodes>
            0 -1 1 4.8857843503355980e-03</internalNodes>
          <leafValues>
            6.7883211374282837e-01 -4.3632566928863525e-01</leafValues></_>
        <_>
          <internalNodes>
            0 -1 30 3.9214439690113068e-02</internalNodes>
          <leafValues>
            3.0174764990806580e-01 -6.8334472179412842e-01</leafValues></_>
        <_>
          <internalNodes>
            0 -1 18 4.0344242006540298e-02</internalNodes>
          <leafValues>
            1.9185777008533478e-01 -8.3910399675369263e-01</leafValues></_>
        <_>
          <internalNodes>
            0 -1 5 3.0558891594409943e-03</internalNodes>
          <leafValues>
            8.1970053911209106e-01 -2.1671865880489349e-01</leafValues></_>
        <_>
          <internalNodes>
            0 -1 20 4.5612514019012451e-02</internalNodes>
          <leafValues>
            2.1326985955238342e-01 -8.5348606109619141e-01</leafValues></_>
        <_>
          <internalNodes>
            0 -1 38 1.8431546166539192e-02</internalNodes>
          <leafValues>
            -8.8949936628341675e-01 1.5106374025344849e-01</leafValues></_>
        <_>
          <internalNodes>
            0 -1 17 1.6083747148513794e-02</internalNodes>
          <leafValues>
            -5.0708329677581787e-01 2.2605012357234955e-01</leafValues></_></weakClassifiers></_>
    <!-- stage 3 -->
    <_>
      <maxWeakCount>7</maxWeakCount>
      <stageThreshold>-7.9538023471832275e-01</stageThreshold>
      <weakClassifiers>
        <_>
          <internalNodes>
            0 -1 12 4.6267751604318619e-03</internalNodes>
          <leafValues>
            7.7443611621856689e-01 -4.5341613888740540e-01</leafValues></_>
        <_>
          <internalNodes>
            0 -1 9 1.1561939492821693e-02</internalNodes>
          <leafValues>
            7.2095036506652832e-01 -3.0250698328018188e-01</leafValues></_>
        <_>
          <internalNodes>
            0 -1 35 2.6497079059481621e-02</internalNodes>
          <leafValues>
            4.1007804870605469e-01 -4.4857996702194214e-01</leafValues></_>
        <_>
          <internalNodes>
            0 -1 24 3.1488090753555298e-02</internalNodes>
          <leafValues>
            -2.8372612595558167e-01 5.1040279865264893e-01</leafValues></_>
        <_>
          <internalNodes>
            0 -1 14 3.9575109258294106e-03</internalNodes>
          <leafValues>
            9.4381874799728394e-01 -1.5298710763454437e-01</leafValues></_>
        <_>
          <internalNodes>
            0 -1 13 4.8494460061192513e-03</internalNodes>
          <leafValues>
            9.7954672574996948e-01 -1.0775683075189590e-01</leafValues></_>
        <_>
          <internalNodes>
            0 -1 16 1.2773120775818825e-02</internalNodes>
          <leafValues>
            5.4283756017684937e-01 -2.7425932884216309e-01</leafValues></_></weakClassifiers></_>
    <!-- stage 4 -->
    <_>
      <maxWeakCount>7</maxWeakCount>
      <stageThreshold>-8.3202630281448364e-01</stageThreshold>
      <weakClassifiers>
        <_>
          <internalNodes>
            0 -1 10 8.4092095494270325e-03</internalNodes>
          <leafValues>
            8.4251970052719116e-01 -4.5603272318840027e-01</leafValues></_>
        <_>
          <internalNodes>
            0 -1 4 3.2449811697006226e-03</internalNodes>
          <leafValues>
            9.3523097038269043e-01 -1.9487503170967102e-01</leafValues></_>
        <_>
          <internalNodes>
            0 -1 3 1.3932561501860619e-02</internalNodes>
          <leafValues>
            6.8486285209655762e-01 -2.1580727398395538e-01</leafValues></_>
        <_>
          <internalNodes>
            0 -1 8 1.8121229950338602e-03</internalNodes>
          <leafValues>
            1. -1.8213371932506561e-01</leafValues></_>
        <_>
          <internalNodes>
            0 -1 6 1.5466342680156231e-02</internalNodes>
          <leafValues>
            5.8979821205139160e-01 -3.0173581838607788e-01</leafValues></_>
        <_>
          <internalNodes>
            0 -1 15 1.3290369883179665e-02</internalNodes>
          <leafValues>
            7.6541709899902344e-01 -1.8739332258701324e-01</leafValues></_>
        <_>
          <internalNodes>
            0 -1 0 1.1261761188507080e-02</internalNodes>
          <leafValues>
            7.2903966903686523e-01 -1.9471852481365204e-01</leafValues></_></weakClassifiers></_>
    <!-- stage 5 -->
    <_>
      <maxWeakCount>7</maxWeakCount>
      <stageThreshold>-5.5318677425384521e-01</stageThreshold>
      <weakClassifiers>
        <_>
          <internalNodes>
            0 -1 31 1.7941292375326157e-02</internalNodes>
          <leafValues>
            -8.2178217172622681e-01 1.2077295035123825e-01</leafValues></_>
        <_>
          <internalNodes>
            0 -1 32 2.1172296255826950e-02</internalNodes>
          <leafValues>
            -6.7431169748306274e-01 1.9773697853088379e-01</leafValues></_>
        <_>
          <internalNodes>
            0 -1 21 3.5964548587799072e-02</internalNodes>
          <leafValues>
            1.7117725312709808e-01 -8.1360447406768799e-01</leafValues></_>
        <_>
          <internalNodes>
            0 -1 27 3.7155572324991226e-02</internalNodes>
          <leafValues>
            -1.8950830399990082e-01 7.1287739276885986e-01</leafValues></_>
        <_>
          <internalNodes>
            0 -1 26 3.8694024085998535e-02</internalNodes>
          <leafValues>
            1.5183611214160919e-01 -8.7776529788970947e-01</leafValues></_>
        <_>
          <internalNodes>
            0 -1 7 2.0489012822508812e-03</internalNodes>
          <leafValues>
            8.6111873388290405e-01 -2.0451815426349640e-01</leafValues></_>
        <_>
          <internalNodes>
            0 -1 25 4.9765851348638535e-02</internalNodes>
          <leafValues>
            1.4187151193618774e-01 -9.6435958147048950e-01</leafValues></_></weakClassifiers></_></stages>
  <features>
    <_>
      <rect>
        0 16 8 8 11</rect></_>
    <_>
      <rect>
        4 8 8 8 32</rect></_>
    <_>
      <rect>
        4 8 8 8 34</rect></_>
    <_>
      <rect>
        8 4 8 8 22</rect></_>
    <_>
      <rect>
        8 8 8 8 27</rect></_>
    <_>
      <rect>
        8 8 8 8 34</rect></_>
    <_>
      <rect>
        8 12 8 8 18</rect></_>
    <_>
      <rect>
        8 12 8 8 27</rect></_>
    <_>
      <rect>
        8 12 8 8 30</rect></_>
    <_>
      <rect>
        8 16 8 8 9</rect></_>
    <_>
      <rect>
        12 8 8 8 21</rect></_>
    <_>
      <rect>
        12 8 8 8 22</rect></_>
    <_>
      <rect>
        12 8 8 8 23</rect></_>
    <_>
      <rect>
        12 8 8 8 28</rect></_>
    <_>
      <rect>
        12 12 8 8 1</rect></_>
    <_>
      <rect>
        16 8 8 8 31</rect></_>
    <_>
      <rect>
        16 12 8 8 25</rect></_>
    <_>
      <rect>
        24 4 8 8 34</rect></_>
    <_>
      <rect>
        0 8 8 16 4</rect></_>
    <_>
      <rect>
        8 8 8 16 17</rect></_>
    <_>
      <rect>
        24 0 8 16 13</rect></_>
    <_>
      <rect>
        0 0 16 8 8</rect></_>
    <_>
      <rect>
        0 0 16 8 15</rect></_>
    <_>
      <rect>
        0 4 16 8 22</rect></_>
    <_>
      <rect>
        4 4 16 8 33</rect></_>
    <_>
      <rect>
        4 20 16 8 31</rect></_>
    <_>
      <rect>
        4 24 16 8 35</rect></_>
    <_>
      <rect>
        8 8 16 8 1</rect></_>
    <_>
      <rect>
        0 0 16 16 4</rect></_>
    <_>
      <rect>
        0 0 16 16 21</rect></_>
    <_>
      <rect>
        0 8 16 16 22</rect></_>
    <_>
      <rect>
        0 8 16 16 23</rect></_>
    <_>
      <rect>
        4 4 16 16 14</rect></_>
    <_>
      <rect>
        4 4 16 16 15</rect></_>
    <_>
      <rect>
        4 4 16 16 28</rect></_>
    <_>
      <rect>
        8 0 16 16 12</rect></_>
    <_>
      <rect>
        8 0 16 16 28</rect></_>
    <_>
      <rect>
        8 4 16 16 31</rect></_>
    <_>
      <rect>
        8 8 16 16 29</rect></_></features></cascade>
</opencv_storage>
