<?xml version="1.0"?>
<opencv_storage>
<stage4>
  <maxWeakCount>7</maxWeakCount>
  <stageThreshold>-8.3202630281448364e-01</stageThreshold>
  <weakClassifiers>
    <_>
      <internalNodes>
        0 -1 849 8.4092095494270325e-03</internalNodes>
      <leafValues>
        8.4251970052719116e-01 -4.5603272318840027e-01</leafValues></_>
    <_>
      <internalNodes>
        0 -1 603 3.2449811697006226e-03</internalNodes>
      <leafValues>
        9.3523097038269043e-01 -1.9487503170967102e-01</leafValues></_>
    <_>
      <internalNodes>
        0 -1 562 1.3932561501860619e-02</internalNodes>
      <leafValues>
        6.8486285209655762e-01 -2.1580727398395538e-01</leafValues></_>
    <_>
      <internalNodes>
        0 -1 642 1.8121229950338602e-03</internalNodes>
      <leafValues>
        1. -1.8213371932506561e-01</leafValues></_>
    <_>
      <internalNodes>
        0 -1 630 1.5466342680156231e-02</internalNodes>
      <leafValues>
        5.8979821205139160e-01 -3.0173581838607788e-01</leafValues></_>
    <_>
      <internalNodes>
        0 -1 1111 1.3290369883179665e-02</internalNodes>
      <leafValues>
        7.6541709899902344e-01 -1.8739332258701324e-01</leafValues></_>
    <_>
      <internalNodes>
        0 -1 155 1.1261761188507080e-02</internalNodes>
      <leafValues>
        7.2903966903686523e-01 -1.9471852481365204e-01</leafValues></_></weakClassifiers></stage4>
</opencv_storage>
