<?xml version="1.0"?>
<opencv_storage>
<stage2>
  <maxWeakCount>7</maxWeakCount>
  <stageThreshold>-5.5414760112762451e-01</stageThreshold>
  <weakClassifiers>
    <_>
      <internalNodes>
        0 -1 356 4.8857843503355980e-03</internalNodes>
      <leafValues>
        6.7883211374282837e-01 -4.3632566928863525e-01</leafValues></_>
    <_>
      <internalNodes>
        0 -1 3370 3.9214439690113068e-02</internalNodes>
      <leafValues>
        3.0174764990806580e-01 -6.8334472179412842e-01</leafValues></_>
    <_>
      <internalNodes>
        0 -1 1840 4.0344242006540298e-02</internalNodes>
      <leafValues>
        1.9185777008533478e-01 -8.3910399675369263e-01</leafValues></_>
    <_>
      <internalNodes>
        0 -1 610 3.0558891594409943e-03</internalNodes>
      <leafValues>
        8.1970053911209106e-01 -2.1671865880489349e-01</leafValues></_>
    <_>
      <internalNodes>
        0 -1 2425 4.5612514019012451e-02</internalNodes>
      <leafValues>
        2.1326985955238342e-01 -8.5348606109619141e-01</leafValues></_>
    <_>
      <internalNodes>
        0 -1 3593 1.8431546166539192e-02</internalNodes>
      <leafValues>
        -8.8949936628341675e-01 1.5106374025344849e-01</leafValues></_>
    <_>
      <internalNodes>
        0 -1 1582 1.6083747148513794e-02</internalNodes>
      <leafValues>
        -5.0708329677581787e-01 2.2605012357234955e-01</leafValues></_></weakClassifiers></stage2>
</opencv_storage>
