<?xml version="1.0"?>
<opencv_storage>
<stage15>
  <maxWeakCount>66</maxWeakCount>
  <stageThreshold>-1.5990414619445801e+00</stageThreshold>
  <weakClassifiers>
    <_>
      <internalNodes>
        0 -1 16380 3.6402034759521484e-01</internalNodes>
      <leafValues>
        -5.9649473428726196e-01 5.8948487043380737e-02</leafValues></_>
    <_>
      <internalNodes>
        0 -1 204914 5.5412020534276962e-02</internalNodes>
      <leafValues>
        -2.2713564336299896e-01 2.2531482577323914e-01</leafValues></_>
    <_>
      <internalNodes>
        0 -1 189787 4.0858816646505147e-05</internalNodes>
      <leafValues>
        1.6939197480678558e-01 -2.1064084768295288e-01</leafValues></_>
    <_>
      <internalNodes>
        0 -1 191229 9.3432645371649414e-06</internalNodes>
      <leafValues>
        8.6105190217494965e-02 -4.3343251943588257e-01</leafValues></_>
    <_>
      <internalNodes>
        0 -1 191229 -9.5391933427890763e-06</internalNodes>
      <leafValues>
        -1.1296425759792328e-01 2.7601838111877441e-01</leafValues></_>
    <_>
      <internalNodes>
        0 -1 120472 -1.3815697282552719e-02</internalNodes>
      <leafValues>
        7.8453145921230316e-02 -3.4654840826988220e-01</leafValues></_>
    <_>
      <internalNodes>
        0 -1 226002 -2.5690400600433350e-01</internalNodes>
      <leafValues>
        -7.6397466659545898e-01 6.1574891209602356e-02</leafValues></_>
    <_>
      <internalNodes>
        0 -1 191189 -9.9673588920268230e-06</internalNodes>
      <leafValues>
        -2.2347326576709747e-01 1.2104193866252899e-01</leafValues></_>
    <_>
      <internalNodes>
        0 -1 223367 -7.6628208626061678e-04</internalNodes>
      <leafValues>
        3.0114403367042542e-01 -9.9466264247894287e-02</leafValues></_>
    <_>
      <internalNodes>
        0 -1 192660 -2.1903803572058678e-03</internalNodes>
      <leafValues>
        -3.9697867631912231e-01 5.7812679558992386e-02</leafValues></_>
    <_>
      <internalNodes>
        0 -1 191150 -3.8726113270968199e-03</internalNodes>
      <leafValues>
        5.6743919849395752e-01 -2.7592550963163376e-02</leafValues></_>
    <_>
      <internalNodes>
        0 -1 48790 4.8447954654693604e-01</internalNodes>
      <leafValues>
        2.9017997905611992e-02 -7.8053212165832520e-01</leafValues></_>
    <_>
      <internalNodes>
        0 -1 12394 1.0565903969109058e-02</internalNodes>
      <leafValues>
        4.2659420520067215e-02 -5.6216865777969360e-01</leafValues></_>
    <_>
      <internalNodes>
        0 -1 63488 -6.5087694674730301e-03</internalNodes>
      <leafValues>
        -4.2995283007621765e-01 3.9206922054290771e-02</leafValues></_>
    <_>
      <internalNodes>
        0 -1 104100 1.9335042685270309e-02</internalNodes>
      <leafValues>
        -3.8988929241895676e-02 5.4831546545028687e-01</leafValues></_>
    <_>
      <internalNodes>
        0 -1 176703 -5.6043313816189766e-03</internalNodes>
      <leafValues>
        -6.1943298578262329e-01 3.3121842890977859e-02</leafValues></_>
    <_>
      <internalNodes>
        0 -1 196204 3.5228870809078217e-02</internalNodes>
      <leafValues>
        -9.3565814197063446e-02 2.4952459335327148e-01</leafValues></_>
    <_>
      <internalNodes>
        0 -1 268848 4.5904490980319679e-04</internalNodes>
      <leafValues>
        -7.0103116333484650e-02 3.1597334146499634e-01</leafValues></_>
    <_>
      <internalNodes>
        0 -1 273252 1.0323506779968739e-02</internalNodes>
      <leafValues>
        3.4609515219926834e-02 -6.0127240419387817e-01</leafValues></_>
    <_>
      <internalNodes>
        0 -1 262946 -9.5587000250816345e-03</internalNodes>
      <leafValues>
        4.5349997282028198e-01 -4.8796959221363068e-02</leafValues></_>
    <_>
      <internalNodes>
        0 -1 245516 -2.7665325906127691e-03</internalNodes>
      <leafValues>
        -1.4992325007915497e-01 1.5471646189689636e-01</leafValues></_>
    <_>
      <internalNodes>
        0 -1 225592 5.5727902799844742e-03</internalNodes>
      <leafValues>
        -1.0125366598367691e-01 2.2292436659336090e-01</leafValues></_>
    <_>
      <internalNodes>
        0 -1 161589 3.2898359000682831e-02</internalNodes>
      <leafValues>
        -4.6947836875915527e-01 4.3300155550241470e-02</leafValues></_>
    <_>
      <internalNodes>
        0 -1 199471 -3.6858266685158014e-03</internalNodes>
      <leafValues>
        -1.2616968154907227e-01 1.9546279311180115e-01</leafValues></_>
    <_>
      <internalNodes>
        0 -1 231742 4.3970485421596095e-05</internalNodes>
      <leafValues>
        1.1508285254240036e-01 -2.0278488099575043e-01</leafValues></_>
    <_>
      <internalNodes>
        0 -1 182249 -4.3797552585601807e-02</internalNodes>
      <leafValues>
        -5.5273371934890747e-01 3.7648890167474747e-02</leafValues></_>
    <_>
      <internalNodes>
        0 -1 263300 8.2905367016792297e-03</internalNodes>
      <leafValues>
        -5.4189905524253845e-02 4.6236985921859741e-01</leafValues></_>
    <_>
      <internalNodes>
        0 -1 150012 6.4349556341767311e-03</internalNodes>
      <leafValues>
        3.2979656010866165e-02 -6.6551393270492554e-01</leafValues></_>
    <_>
      <internalNodes>
        0 -1 231742 -9.5561763373552822e-06</internalNodes>
      <leafValues>
        -2.0312373340129852e-01 9.4284221529960632e-02</leafValues></_>
    <_>
      <internalNodes>
        0 -1 48718 1.2546181678771973e-01</internalNodes>
      <leafValues>
        -9.9528267979621887e-02 2.1771593391895294e-01</leafValues></_>
    <_>
      <internalNodes>
        0 -1 227945 1.6263982653617859e-01</internalNodes>
      <leafValues>
        -1.5317542850971222e-01 2.0829053223133087e-01</leafValues></_>
    <_>
      <internalNodes>
        0 -1 264598 -9.2739798128604889e-03</internalNodes>
      <leafValues>
        4.4313579797744751e-01 -4.9755979329347610e-02</leafValues></_>
    <_>
      <internalNodes>
        0 -1 157944 1.0309178614988923e-03</internalNodes>
      <leafValues>
        2.2026833891868591e-01 -9.7635358572006226e-02</leafValues></_>
    <_>
      <internalNodes>
        0 -1 32959 1.1074806563556194e-02</internalNodes>
      <leafValues>
        2.6294430717825890e-02 -7.4030280113220215e-01</leafValues></_>
    <_>
      <internalNodes>
        0 -1 47032 3.9575508236885071e-01</internalNodes>
      <leafValues>
        -1.2511815130710602e-01 1.5045802295207977e-01</leafValues></_>
    <_>
      <internalNodes>
        0 -1 272263 -4.0709222666919231e-03</internalNodes>
      <leafValues>
        5.3883141279220581e-01 -3.9656437933444977e-02</leafValues></_>
    <_>
      <internalNodes>
        0 -1 43389 2.0479753613471985e-02</internalNodes>
      <leafValues>
        5.5159628391265869e-02 -3.7948587536811829e-01</leafValues></_>
    <_>
      <internalNodes>
        0 -1 43149 7.9676930909045041e-05</internalNodes>
      <leafValues>
        -9.6483528614044189e-02 1.9706633687019348e-01</leafValues></_>
    <_>
      <internalNodes>
        0 -1 274378 -4.0890645235776901e-02</internalNodes>
      <leafValues>
        -8.7963330745697021e-01 2.0744657143950462e-02</leafValues></_>
    <_>
      <internalNodes>
        0 -1 103340 -9.0561695396900177e-02</internalNodes>
      <leafValues>
        -9.0560209751129150e-01 1.3399111106991768e-02</leafValues></_>
    <_>
      <internalNodes>
        0 -1 241329 8.3165653049945831e-03</internalNodes>
      <leafValues>
        2.2329820320010185e-02 -6.1425125598907471e-01</leafValues></_>
    <_>
      <internalNodes>
        0 -1 271689 3.2512005418539047e-03</internalNodes>
      <leafValues>
        -1.2232987582683563e-01 1.6896189749240875e-01</leafValues></_>
    <_>
      <internalNodes>
        0 -1 1885 2.5188585277646780e-03</internalNodes>
      <leafValues>
        -3.4252548217773438e-01 5.4173097014427185e-02</leafValues></_>
    <_>
      <internalNodes>
        0 -1 46658 -2.8578628553077579e-04</internalNodes>
      <leafValues>
        3.5236889123916626e-01 -6.1389222741127014e-02</leafValues></_>
    <_>
      <internalNodes>
        0 -1 232223 5.4973093792796135e-03</internalNodes>
      <leafValues>
        3.5256490111351013e-02 -6.4847207069396973e-01</leafValues></_>
    <_>
      <internalNodes>
        0 -1 267624 -2.7151592075824738e-03</internalNodes>
      <leafValues>
        4.1947919130325317e-01 -5.5888380855321884e-02</leafValues></_>
    <_>
      <internalNodes>
        0 -1 276598 -2.4679533671587706e-03</internalNodes>
      <leafValues>
        -2.3218221962451935e-01 8.6218617856502533e-02</leafValues></_>
    <_>
      <internalNodes>
        0 -1 102194 -1.3628229498863220e-01</internalNodes>
      <leafValues>
        4.2768231034278870e-01 -4.5611426234245300e-02</leafValues></_>
    <_>
      <internalNodes>
        0 -1 230823 4.1989558667410165e-05</internalNodes>
      <leafValues>
        1.1452362686395645e-01 -1.9318997859954834e-01</leafValues></_>
    <_>
      <internalNodes>
        0 -1 222337 -1.0841219685971737e-02</internalNodes>
      <leafValues>
        -4.8118191957473755e-01 3.7736810743808746e-02</leafValues></_>
    <_>
      <internalNodes>
        0 -1 160708 -3.9780075894668698e-04</internalNodes>
      <leafValues>
        3.8043281435966492e-01 -5.4341960698366165e-02</leafValues></_>
    <_>
      <internalNodes>
        0 -1 64 2.5011836551129818e-03</internalNodes>
      <leafValues>
        7.5693979859352112e-02 -2.5643843412399292e-01</leafValues></_>
    <_>
      <internalNodes>
        0 -1 40132 -3.0909206543583423e-05</internalNodes>
      <leafValues>
        2.0058228075504303e-01 -1.0111581534147263e-01</leafValues></_>
    <_>
      <internalNodes>
        0 -1 50072 1.3677962124347687e-02</internalNodes>
      <leafValues>
        -3.6652691662311554e-02 6.0803484916687012e-01</leafValues></_>
    <_>
      <internalNodes>
        0 -1 276221 -1.1554323136806488e-03</internalNodes>
      <leafValues>
        -2.3381978273391724e-01 8.5352078080177307e-02</leafValues></_>
    <_>
      <internalNodes>
        0 -1 44537 -1.1076491326093674e-02</internalNodes>
      <leafValues>
        -7.8141683340072632e-01 2.3267138749361038e-02</leafValues></_>
    <_>
      <internalNodes>
        0 -1 18783 -1.1176105588674545e-02</internalNodes>
      <leafValues>
        -7.0578378438949585e-01 2.0381968468427658e-02</leafValues></_>
    <_>
      <internalNodes>
        0 -1 175297 9.3432645371649414e-06</internalNodes>
      <leafValues>
        6.5421782433986664e-02 -2.7688193321228027e-01</leafValues></_>
    <_>
      <internalNodes>
        0 -1 88740 -1.8404182791709900e-01</internalNodes>
      <leafValues>
        2.9082390666007996e-01 -6.9352917373180389e-02</leafValues></_>
    <_>
      <internalNodes>
        0 -1 172634 1.1025596904801205e-04</internalNodes>
      <leafValues>
        1.1404907703399658e-01 -2.2356754541397095e-01</leafValues></_>
    <_>
      <internalNodes>
        0 -1 103795 -4.9760437104851007e-04</internalNodes>
      <leafValues>
        8.4322065114974976e-02 -2.3805509507656097e-01</leafValues></_>
    <_>
      <internalNodes>
        0 -1 23779 2.8204324189573526e-04</internalNodes>
      <leafValues>
        -7.4511796236038208e-02 2.8981795907020569e-01</leafValues></_>
    <_>
      <internalNodes>
        0 -1 44920 -6.6549953771755099e-05</internalNodes>
      <leafValues>
        2.1283411979675293e-01 -1.0023337602615356e-01</leafValues></_>
    <_>
      <internalNodes>
        0 -1 2056 -1.7006383277475834e-03</internalNodes>
      <leafValues>
        -2.7605593204498291e-01 7.9480871558189392e-02</leafValues></_>
    <_>
      <internalNodes>
        0 -1 78611 1.9041764317080379e-03</internalNodes>
      <leafValues>
        -6.5115995705127716e-02 3.3107137680053711e-01</leafValues></_>
    <_>
      <internalNodes>
        0 -1 255942 -2.2780808806419373e-01</internalNodes>
      <leafValues>
        7.5947171449661255e-01 -2.2974202409386635e-02</leafValues></_></weakClassifiers></stage15>
</opencv_storage>
