<?xml version="1.0"?>
<opencv_storage>
<stage10>
  <maxWeakCount>100</maxWeakCount>
  <stageThreshold>-1.8188893795013428e+00</stageThreshold>
  <weakClassifiers>
    <_>
      <internalNodes>
        0 -1 236 2.0758561731781811e-04</internalNodes>
      <leafValues>
        2.4324324727058411e-01 -6.0954535007476807e-01</leafValues></_>
    <_>
      <internalNodes>
        0 -1 103 2.2685406729578972e-03</internalNodes>
      <leafValues>
        4.2901137471199036e-01 -1.8449692428112030e-01</leafValues></_>
    <_>
      <internalNodes>
        0 -1 31 4.6745326370000839e-02</internalNodes>
      <leafValues>
        -1.4890924096107483e-01 2.9895907640457153e-01</leafValues></_>
    <_>
      <internalNodes>
        0 -1 142 3.9918236434459686e-03</internalNodes>
      <leafValues>
        2.3988986015319824e-01 -1.0152801871299744e-01</leafValues></_>
    <_>
      <internalNodes>
        0 -1 241 3.9881102740764618e-02</internalNodes>
      <leafValues>
        -1.0476917028427124e-01 2.1810580790042877e-01</leafValues></_>
    <_>
      <internalNodes>
        0 -1 243 6.5025404095649719e-02</internalNodes>
      <leafValues>
        -5.7438217103481293e-02 3.5329845547676086e-01</leafValues></_>
    <_>
      <internalNodes>
        0 -1 51 6.5331667661666870e-02</internalNodes>
      <leafValues>
        -6.4537689089775085e-02 3.0819118022918701e-01</leafValues></_>
    <_>
      <internalNodes>
        0 -1 181 4.5663811266422272e-02</internalNodes>
      <leafValues>
        -8.1336960196495056e-02 2.3700900375843048e-01</leafValues></_>
    <_>
      <internalNodes>
        0 -1 138 3.9365526754409075e-04</internalNodes>
      <leafValues>
        -6.9146692752838135e-01 3.0559826642274857e-02</leafValues></_>
    <_>
      <internalNodes>
        0 -1 20 5.0225272774696350e-02</internalNodes>
      <leafValues>
        -6.5270267426967621e-02 2.4565452337265015e-01</leafValues></_>
    <_>
      <internalNodes>
        0 -1 111 3.0177775770425797e-02</internalNodes>
      <leafValues>
        5.3771600127220154e-02 -2.7071303129196167e-01</leafValues></_>
    <_>
      <internalNodes>
        0 -1 267 2.3411277681589127e-02</internalNodes>
      <leafValues>
        -1.0715439170598984e-01 1.2430508434772491e-01</leafValues></_>
    <_>
      <internalNodes>
        0 -1 236 2.9197952244430780e-04</internalNodes>
      <leafValues>
        -3.0344936251640320e-01 6.6176526248455048e-02</leafValues></_>
    <_>
      <internalNodes>
        0 -1 251 4.2765256017446518e-02</internalNodes>
      <leafValues>
        -1.0188254714012146e-01 1.6598464548587799e-01</leafValues></_>
    <_>
      <internalNodes>
        0 -1 143 1.3970592990517616e-02</internalNodes>
      <leafValues>
        1.1499221622943878e-01 -1.2401248514652252e-01</leafValues></_>
    <_>
      <internalNodes>
        0 -1 62 4.0309682488441467e-02</internalNodes>
      <leafValues>
        -1.0944452136754990e-01 1.2910844385623932e-01</leafValues></_>
    <_>
      <internalNodes>
        0 -1 58 5.5304989218711853e-02</internalNodes>
      <leafValues>
        5.2561387419700623e-03 -9.2988950014114380e-01</leafValues></_>
    <_>
      <internalNodes>
        0 -1 134 4.0887095034122467e-02</internalNodes>
      <leafValues>
        4.5353133231401443e-02 -2.3724980652332306e-01</leafValues></_>
    <_>
      <internalNodes>
        0 -1 239 4.8940407577902079e-04</internalNodes>
      <leafValues>
        3.1305515766143799e-01 -3.2665297389030457e-02</leafValues></_>
    <_>
      <internalNodes>
        0 -1 132 1.7307590460404754e-03</internalNodes>
      <leafValues>
        -6.1750102043151855e-01 1.4036909677088261e-02</leafValues></_>
    <_>
      <internalNodes>
        0 -1 130 3.2004289329051971e-02</internalNodes>
      <leafValues>
        5.2163626998662949e-02 -2.0232065021991730e-01</leafValues></_>
    <_>
      <internalNodes>
        0 -1 53 7.8880861401557922e-03</internalNodes>
      <leafValues>
        -2.7324047684669495e-01 3.9330366998910904e-02</leafValues></_>
    <_>
      <internalNodes>
        0 -1 239 4.7787569463253021e-02</internalNodes>
      <leafValues>
        -6.0535106807947159e-02 2.1526926755905151e-01</leafValues></_>
    <_>
      <internalNodes>
        0 -1 152 2.9672048985958099e-02</internalNodes>
      <leafValues>
        5.5440764874219894e-02 -2.2001640498638153e-01</leafValues></_>
    <_>
      <internalNodes>
        0 -1 49 1.3142390176653862e-02</internalNodes>
      <leafValues>
        1.4701725542545319e-01 -7.6000727713108063e-02</leafValues></_>
    <_>
      <internalNodes>
        0 -1 280 1.2764379382133484e-02</internalNodes>
      <leafValues>
        -1.4321988821029663e-01 7.4122875928878784e-02</leafValues></_>
    <_>
      <internalNodes>
        0 -1 153 1.3943399302661419e-02</internalNodes>
      <leafValues>
        8.2276083528995514e-02 -1.2909784913063049e-01</leafValues></_>
    <_>
      <internalNodes>
        0 -1 12 1.8445607274770737e-02</internalNodes>
      <leafValues>
        -1.0782849043607712e-01 1.0484070330858231e-01</leafValues></_>
    <_>
      <internalNodes>
        0 -1 157 4.8538386821746826e-02</internalNodes>
      <leafValues>
        3.2421350479125977e-02 -3.1121450662612915e-01</leafValues></_>
    <_>
      <internalNodes>
        0 -1 99 1.1794148012995720e-03</internalNodes>
      <leafValues>
        3.1887891888618469e-01 -3.3242065459489822e-02</leafValues></_>
    <_>
      <internalNodes>
        0 -1 243 7.8718531876802444e-03</internalNodes>
      <leafValues>
        -2.5705510377883911e-01 4.2769808322191238e-02</leafValues></_>
    <_>
      <internalNodes>
        0 -1 174 3.1895503401756287e-02</internalNodes>
      <leafValues>
        3.6626953631639481e-02 -2.7593261003494263e-01</leafValues></_>
    <_>
      <internalNodes>
        0 -1 35 1.0228072106838226e-01</internalNodes>
      <leafValues>
        -4.8868034034967422e-02 2.1280807256698608e-01</leafValues></_>
    <_>
      <internalNodes>
        0 -1 143 4.4416449964046478e-02</internalNodes>
      <leafValues>
        3.6213487386703491e-02 -3.1583088636398315e-01</leafValues></_>
    <_>
      <internalNodes>
        0 -1 161 4.2710922658443451e-02</internalNodes>
      <leafValues>
        2.6998056098818779e-02 -3.6033934354782104e-01</leafValues></_>
    <_>
      <internalNodes>
        0 -1 247 3.2991301268339157e-02</internalNodes>
      <leafValues>
        3.4752748906612396e-02 -2.5448119640350342e-01</leafValues></_>
    <_>
      <internalNodes>
        0 -1 284 7.8943453263491392e-04</internalNodes>
      <leafValues>
        -4.5746165513992310e-01 1.9810302183032036e-02</leafValues></_>
    <_>
      <internalNodes>
        0 -1 100 4.5847645378671587e-04</internalNodes>
      <leafValues>
        2.9791107773780823e-01 -3.4522380679845810e-02</leafValues></_>
    <_>
      <internalNodes>
        0 -1 7 3.9051547646522522e-02</internalNodes>
      <leafValues>
        1.8519405275583267e-02 -4.9146896600723267e-01</leafValues></_>
    <_>
      <internalNodes>
        0 -1 100 4.2826596647500992e-02</internalNodes>
      <leafValues>
        -5.8794502168893814e-02 1.6198340058326721e-01</leafValues></_>
    <_>
      <internalNodes>
        0 -1 188 2.8106048703193665e-02</internalNodes>
      <leafValues>
        -9.3936130404472351e-02 1.1091763526201248e-01</leafValues></_>
    <_>
      <internalNodes>
        0 -1 96 3.4145835787057877e-02</internalNodes>
      <leafValues>
        -7.9076670110225677e-02 1.3437412679195404e-01</leafValues></_>
    <_>
      <internalNodes>
        0 -1 287 1.2505907798185945e-03</internalNodes>
      <leafValues>
        -6.9531100988388062e-01 1.2853332795202732e-02</leafValues></_>
    <_>
      <internalNodes>
        0 -1 142 2.7411293238401413e-02</internalNodes>
      <leafValues>
        4.5052077621221542e-02 -1.9371132552623749e-01</leafValues></_>
    <_>
      <internalNodes>
        0 -1 183 9.0936154127120972e-02</internalNodes>
      <leafValues>
        9.5309447497129440e-03 -8.3842176198959351e-01</leafValues></_>
    <_>
      <internalNodes>
        0 -1 195 1.2846266850829124e-02</internalNodes>
      <leafValues>
        -1.3797958195209503e-01 5.9964679181575775e-02</leafValues></_>
    <_>
      <internalNodes>
        0 -1 165 6.9693364202976227e-02</internalNodes>
      <leafValues>
        -3.8378830999135971e-02 2.7448669075965881e-01</leafValues></_>
    <_>
      <internalNodes>
        0 -1 76 8.0737397074699402e-03</internalNodes>
      <leafValues>
        1.2887123227119446e-01 -7.7781602740287781e-02</leafValues></_>
    <_>
      <internalNodes>
        0 -1 129 3.0762221664190292e-02</internalNodes>
      <leafValues>
        3.9565663784742355e-02 -2.1884813904762268e-01</leafValues></_>
    <_>
      <internalNodes>
        0 -1 126 5.6916557252407074e-02</internalNodes>
      <leafValues>
        1.3425286859273911e-02 -5.6129622459411621e-01</leafValues></_>
    <_>
      <internalNodes>
        0 -1 105 1.6370104276575148e-04</internalNodes>
      <leafValues>
        3.3338296413421631e-01 -2.7077632024884224e-02</leafValues></_>
    <_>
      <internalNodes>
        0 -1 134 1.4343419671058655e-01</internalNodes>
      <leafValues>
        8.9145302772521973e-03 -8.8225001096725464e-01</leafValues></_>
    <_>
      <internalNodes>
        0 -1 231 4.1516181081533432e-03</internalNodes>
      <leafValues>
        2.1669067442417145e-01 -4.1958838701248169e-02</leafValues></_>
    <_>
      <internalNodes>
        0 -1 281 5.6773819960653782e-04</internalNodes>
      <leafValues>
        -8.3512109518051147e-01 1.2176205404102802e-02</leafValues></_>
    <_>
      <internalNodes>
        0 -1 117 8.4582436829805374e-03</internalNodes>
      <leafValues>
        1.8229933083057404e-01 -5.2314683794975281e-02</leafValues></_>
    <_>
      <internalNodes>
        0 -1 36 5.1481998525559902e-04</internalNodes>
      <leafValues>
        -8.4332042932510376e-01 9.4898464158177376e-03</leafValues></_>
    <_>
      <internalNodes>
        0 -1 110 8.9428439736366272e-02</internalNodes>
      <leafValues>
        9.1035338118672371e-03 -6.6490131616592407e-01</leafValues></_>
    <_>
      <internalNodes>
        0 -1 12 2.8147004195488989e-04</internalNodes>
      <leafValues>
        -6.1981832981109619e-01 9.8587786778807640e-03</leafValues></_>
    <_>
      <internalNodes>
        0 -1 282 6.5646380186080933e-02</internalNodes>
      <leafValues>
        1.3998921960592270e-02 -4.5766961574554443e-01</leafValues></_>
    <_>
      <internalNodes>
        0 -1 100 1.5687945485115051e-01</internalNodes>
      <leafValues>
        8.6249746382236481e-03 -7.4009883403778076e-01</leafValues></_>
    <_>
      <internalNodes>
        0 -1 262 7.2212874889373779e-02</internalNodes>
      <leafValues>
        -3.5160116851329803e-02 2.8051826357841492e-01</leafValues></_>
    <_>
      <internalNodes>
        0 -1 227 7.8341709449887276e-03</internalNodes>
      <leafValues>
        1.0442534089088440e-01 -8.5601620376110077e-02</leafValues></_>
    <_>
      <internalNodes>
        0 -1 102 6.4474325627088547e-03</internalNodes>
      <leafValues>
        1.4043059945106506e-01 -5.8905739337205887e-02</leafValues></_>
    <_>
      <internalNodes>
        0 -1 120 6.9908131845295429e-03</internalNodes>
      <leafValues>
        -1.5281794965267181e-01 6.0272563248872757e-02</leafValues></_>
    <_>
      <internalNodes>
        0 -1 218 9.4848911976441741e-04</internalNodes>
      <leafValues>
        2.3337523639202118e-01 -3.5415884107351303e-02</leafValues></_>
    <_>
      <internalNodes>
        0 -1 37 1.1561335064470768e-02</internalNodes>
      <leafValues>
        -1.3191638886928558e-01 6.6818699240684509e-02</leafValues></_>
    <_>
      <internalNodes>
        0 -1 128 3.1972274882718921e-04</internalNodes>
      <leafValues>
        -5.5934506654739380e-01 1.3398186303675175e-02</leafValues></_>
    <_>
      <internalNodes>
        0 -1 79 1.9624594599008560e-02</internalNodes>
      <leafValues>
        7.7882640063762665e-02 -1.0091187059879303e-01</leafValues></_>
    <_>
      <internalNodes>
        0 -1 61 2.8253350406885147e-02</internalNodes>
      <leafValues>
        -9.0626649558544159e-02 9.2943288385868073e-02</leafValues></_>
    <_>
      <internalNodes>
        0 -1 259 7.7934935688972473e-04</internalNodes>
      <leafValues>
        4.3739050626754761e-01 -1.9594592973589897e-02</leafValues></_>
    <_>
      <internalNodes>
        0 -1 169 1.8793281633406878e-03</internalNodes>
      <leafValues>
        -4.2680847644805908e-01 1.9627682864665985e-02</leafValues></_>
    <_>
      <internalNodes>
        0 -1 155 4.1168334428220987e-04</internalNodes>
      <leafValues>
        -6.5389776229858398e-01 9.7182914614677429e-03</leafValues></_>
    <_>
      <internalNodes>
        0 -1 183 5.0584459677338600e-03</internalNodes>
      <leafValues>
        1.7627879977226257e-01 -4.2357344180345535e-02</leafValues></_>
    <_>
      <internalNodes>
        0 -1 71 1.8014508485794067e-01</internalNodes>
      <leafValues>
        1.2176863849163055e-02 -6.4956867694854736e-01</leafValues></_>
    <_>
      <internalNodes>
        0 -1 250 6.3002468086779118e-03</internalNodes>
      <leafValues>
        1.5280045568943024e-01 -5.0785660743713379e-02</leafValues></_>
    <_>
      <internalNodes>
        0 -1 215 2.6700530201196671e-02</internalNodes>
      <leafValues>
        -1.4098323881626129e-01 5.9223242104053497e-02</leafValues></_>
    <_>
      <internalNodes>
        0 -1 205 7.4238188564777374e-02</internalNodes>
      <leafValues>
        2.5312019512057304e-02 -2.5784498453140259e-01</leafValues></_>
    <_>
      <internalNodes>
        0 -1 241 9.1397680342197418e-02</internalNodes>
      <leafValues>
        -2.1353479474782944e-02 3.6170861124992371e-01</leafValues></_>
    <_>
      <internalNodes>
        0 -1 277 2.3060478270053864e-02</internalNodes>
      <leafValues>
        6.4445272088050842e-02 -1.2110221385955811e-01</leafValues></_>
    <_>
      <internalNodes>
        0 -1 131 2.0529325411189348e-04</internalNodes>
      <leafValues>
        -7.7693569660186768e-01 1.0963320732116699e-02</leafValues></_>
    <_>
      <internalNodes>
        0 -1 64 1.3724305608775467e-04</internalNodes>
      <leafValues>
        2.9114767909049988e-01 -2.8034053742885590e-02</leafValues></_>
    <_>
      <internalNodes>
        0 -1 280 1.4947908930480480e-03</internalNodes>
      <leafValues>
        -5.7464468479156494e-01 1.4388186857104301e-02</leafValues></_>
    <_>
      <internalNodes>
        0 -1 114 1.1380276829004288e-01</internalNodes>
      <leafValues>
        -1.9957147538661957e-02 3.8724994659423828e-01</leafValues></_>
    <_>
      <internalNodes>
        0 -1 242 1.7253708094358444e-02</internalNodes>
      <leafValues>
        -1.3763561844825745e-01 6.3024632632732391e-02</leafValues></_>
    <_>
      <internalNodes>
        0 -1 46 5.2958093583583832e-02</internalNodes>
      <leafValues>
        -3.8682397454977036e-02 2.1505583822727203e-01</leafValues></_>
    <_>
      <internalNodes>
        0 -1 190 2.8768721967935562e-02</internalNodes>
      <leafValues>
        4.4418841600418091e-02 -2.2807091474533081e-01</leafValues></_>
    <_>
      <internalNodes>
        0 -1 145 1.3394090533256531e-01</internalNodes>
      <leafValues>
        7.4866903014481068e-03 -8.9344090223312378e-01</leafValues></_>
    <_>
      <internalNodes>
        0 -1 109 5.8321621268987656e-02</internalNodes>
      <leafValues>
        -3.8094088435173035e-02 2.0646420121192932e-01</leafValues></_>
    <_>
      <internalNodes>
        0 -1 123 2.6240445673465729e-02</internalNodes>
      <leafValues>
        -9.4568721950054169e-02 7.8826479613780975e-02</leafValues></_>
    <_>
      <internalNodes>
        0 -1 202 4.4236477697268128e-04</internalNodes>
      <leafValues>
        3.2644069194793701e-01 -2.2820118814706802e-02</leafValues></_>
    <_>
      <internalNodes>
        0 -1 256 6.8560904765035957e-05</internalNodes>
      <leafValues>
        -5.6744611263275146e-01 1.7015485092997551e-02</leafValues></_>
    <_>
      <internalNodes>
        0 -1 204 1.5572050213813782e-01</internalNodes>
      <leafValues>
        5.5966200307011604e-03 -8.2657122611999512e-01</leafValues></_>
    <_>
      <internalNodes>
        0 -1 141 9.0625137090682983e-02</internalNodes>
      <leafValues>
        -2.2696124389767647e-02 3.4895858168601990e-01</leafValues></_>
    <_>
      <internalNodes>
        0 -1 240 1.5475355030503124e-04</internalNodes>
      <leafValues>
        4.1641426086425781e-01 -1.6118232160806656e-02</leafValues></_>
    <_>
      <internalNodes>
        0 -1 146 2.5635951897129416e-04</internalNodes>
      <leafValues>
        -8.7210994958877563e-01 7.6241837814450264e-03</leafValues></_>
    <_>
      <internalNodes>
        0 -1 50 1.4786740939598531e-04</internalNodes>
      <leafValues>
        4.2639982700347900e-01 -1.8115699291229248e-02</leafValues></_>
    <_>
      <internalNodes>
        0 -1 278 8.6858011782169342e-03</internalNodes>
      <leafValues>
        1.2330707162618637e-01 -5.6568205356597900e-02</leafValues></_>
    <_>
      <internalNodes>
        0 -1 275 4.9968985840678215e-03</internalNodes>
      <leafValues>
        -2.3138695955276489e-01 3.2074805349111557e-02</leafValues></_>
    <_>
      <internalNodes>
        0 -1 238 1.0638886690139771e-01</internalNodes>
      <leafValues>
        5.5832262150943279e-03 -9.8383992910385132e-01</leafValues></_>
    <_>
      <internalNodes>
        0 -1 242 5.3652014583349228e-02</internalNodes>
      <leafValues>
        -5.4481029510498047e-02 1.3896295428276062e-01</leafValues></_></weakClassifiers></stage10>
</opencv_storage>
