<?xml version="1.0"?>
<opencv_storage>
<stage4>
  <maxWeakCount>39</maxWeakCount>
  <stageThreshold>-2.0868535041809082e+00</stageThreshold>
  <weakClassifiers>
    <_>
      <internalNodes>
        0 -1 12194 7.6147663593292236e-01</internalNodes>
      <leafValues>
        -2.9899758100509644e-01 4.4878563284873962e-01</leafValues></_>
    <_>
      <internalNodes>
        0 -1 15113 7.6281476020812988e-01</internalNodes>
      <leafValues>
        -2.1295769512653351e-01 5.9479820728302002e-01</leafValues></_>
    <_>
      <internalNodes>
        0 -1 94289 -1.2312004342675209e-02</internalNodes>
      <leafValues>
        -7.0824027061462402e-01 1.3349668681621552e-01</leafValues></_>
    <_>
      <internalNodes>
        0 -1 73994 3.3548884093761444e-03</internalNodes>
      <leafValues>
        1.3167403638362885e-01 -6.8402284383773804e-01</leafValues></_>
    <_>
      <internalNodes>
        0 -1 4702 3.9262562990188599e-02</internalNodes>
      <leafValues>
        -7.0179319381713867e-01 1.0490551590919495e-01</leafValues></_>
    <_>
      <internalNodes>
        0 -1 64705 -1.2868032790720463e-02</internalNodes>
      <leafValues>
        -5.8175033330917358e-01 1.0509832948446274e-01</leafValues></_>
    <_>
      <internalNodes>
        0 -1 5731 -2.2362325340509415e-02</internalNodes>
      <leafValues>
        -5.2319043874740601e-01 1.4321044087409973e-01</leafValues></_>
    <_>
      <internalNodes>
        0 -1 47169 1.1703232303261757e-02</internalNodes>
      <leafValues>
        9.1990374028682709e-02 -6.9004499912261963e-01</leafValues></_>
    <_>
      <internalNodes>
        0 -1 18296 -1.0476113297045231e-02</internalNodes>
      <leafValues>
        -7.2770094871520996e-01 7.4281133711338043e-02</leafValues></_>
    <_>
      <internalNodes>
        0 -1 408 -2.2807043045759201e-02</internalNodes>
      <leafValues>
        -6.0304403305053711e-01 7.3732018470764160e-02</leafValues></_>
    <_>
      <internalNodes>
        0 -1 102391 6.1817690730094910e-02</internalNodes>
      <leafValues>
        -1.0978984832763672e-01 5.3448909521102905e-01</leafValues></_>
    <_>
      <internalNodes>
        0 -1 72408 -1.6244733333587646e-01</internalNodes>
      <leafValues>
        4.2381450533866882e-01 -1.8512734770774841e-01</leafValues></_>
    <_>
      <internalNodes>
        0 -1 7414 -1.1572331190109253e-02</internalNodes>
      <leafValues>
        -5.1938289403915405e-01 1.6264016926288605e-01</leafValues></_>
    <_>
      <internalNodes>
        0 -1 34115 -6.1083436012268066e-03</internalNodes>
      <leafValues>
        -5.0590074062347412e-01 1.0006143152713776e-01</leafValues></_>
    <_>
      <internalNodes>
        0 -1 93584 -1.1443344876170158e-02</internalNodes>
      <leafValues>
        -4.7096544504165649e-01 1.2273892015218735e-01</leafValues></_>
    <_>
      <internalNodes>
        0 -1 5309 7.5170516967773438e-02</internalNodes>
      <leafValues>
        -1.1042893677949905e-01 7.1775698661804199e-01</leafValues></_>
    <_>
      <internalNodes>
        0 -1 21388 2.4408307671546936e-01</internalNodes>
      <leafValues>
        -6.7327119410037994e-02 6.1085808277130127e-01</leafValues></_>
    <_>
      <internalNodes>
        0 -1 82626 3.6436330527067184e-02</internalNodes>
      <leafValues>
        -1.1221370846033096e-01 4.6423840522766113e-01</leafValues></_>
    <_>
      <internalNodes>
        0 -1 118543 1.2432994320988655e-02</internalNodes>
      <leafValues>
        7.7145129442214966e-02 -7.6310396194458008e-01</leafValues></_>
    <_>
      <internalNodes>
        0 -1 54686 1.0382765531539917e-01</internalNodes>
      <leafValues>
        -1.0841091722249985e-01 5.3608971834182739e-01</leafValues></_>
    <_>
      <internalNodes>
        0 -1 56583 -2.1421540528535843e-02</internalNodes>
      <leafValues>
        -3.0280110239982605e-01 1.8423788249492645e-01</leafValues></_>
    <_>
      <internalNodes>
        0 -1 9924 1.0615478269755840e-02</internalNodes>
      <leafValues>
        5.9789478778839111e-02 -6.7117542028427124e-01</leafValues></_>
    <_>
      <internalNodes>
        0 -1 16387 -1.0715913027524948e-01</internalNodes>
      <leafValues>
        3.7229964137077332e-01 -1.1892211437225342e-01</leafValues></_>
    <_>
      <internalNodes>
        0 -1 13516 8.7476894259452820e-03</internalNodes>
      <leafValues>
        1.4919371902942657e-01 -3.7593734264373779e-01</leafValues></_>
    <_>
      <internalNodes>
        0 -1 121660 1.0795596987009048e-02</internalNodes>
      <leafValues>
        6.6549353301525116e-02 -6.6732424497604370e-01</leafValues></_>
    <_>
      <internalNodes>
        0 -1 12843 1.1289305984973907e-01</internalNodes>
      <leafValues>
        -7.1517758071422577e-02 7.3636603355407715e-01</leafValues></_>
    <_>
      <internalNodes>
        0 -1 16801 4.1212037205696106e-02</internalNodes>
      <leafValues>
        -2.0226545631885529e-01 2.0978187024593353e-01</leafValues></_>
    <_>
      <internalNodes>
        0 -1 26324 -9.8115708678960800e-03</internalNodes>
      <leafValues>
        3.3851245045661926e-01 -1.2489008903503418e-01</leafValues></_>
    <_>
      <internalNodes>
        0 -1 27037 -1.5409367624670267e-03</internalNodes>
      <leafValues>
        -3.5261711478233337e-01 1.0877268761396408e-01</leafValues></_>
    <_>
      <internalNodes>
        0 -1 75796 -1.3528710231184959e-02</internalNodes>
      <leafValues>
        -6.9615364074707031e-01 5.2815072238445282e-02</leafValues></_>
    <_>
      <internalNodes>
        0 -1 6890 -1.0325102135539055e-02</internalNodes>
      <leafValues>
        -4.2408502101898193e-01 7.9373337328433990e-02</leafValues></_>
    <_>
      <internalNodes>
        0 -1 13625 3.8591042160987854e-02</internalNodes>
      <leafValues>
        -1.1674056202173233e-01 3.6644750833511353e-01</leafValues></_>
    <_>
      <internalNodes>
        0 -1 4681 1.1189262568950653e-01</internalNodes>
      <leafValues>
        -1.8677370250225067e-01 2.5633716583251953e-01</leafValues></_>
    <_>
      <internalNodes>
        0 -1 10505 2.2147959470748901e-01</internalNodes>
      <leafValues>
        1.6898685693740845e-01 -3.2210153341293335e-01</leafValues></_>
    <_>
      <internalNodes>
        0 -1 36101 -9.2840343713760376e-03</internalNodes>
      <leafValues>
        -4.5553258061408997e-01 7.7359631657600403e-02</leafValues></_>
    <_>
      <internalNodes>
        0 -1 57250 2.5320941209793091e-01</internalNodes>
      <leafValues>
        -5.3171742707490921e-02 8.1489372253417969e-01</leafValues></_>
    <_>
      <internalNodes>
        0 -1 85298 -4.1130468249320984e-02</internalNodes>
      <leafValues>
        2.9932105541229248e-01 -1.1628769338130951e-01</leafValues></_>
    <_>
      <internalNodes>
        0 -1 25705 5.5709445476531982e-01</internalNodes>
      <leafValues>
        -5.6199476122856140e-02 6.9259309768676758e-01</leafValues></_>
    <_>
      <internalNodes>
        0 -1 28481 -1.8601885065436363e-02</internalNodes>
      <leafValues>
        -3.7717753648757935e-01 1.0647961497306824e-01</leafValues></_></weakClassifiers></stage4>
</opencv_storage>
