<?xml version="1.0"?>
<opencv_storage>
<stage3>
  <maxWeakCount>30</maxWeakCount>
  <stageThreshold>-2.0018756389617920e+00</stageThreshold>
  <weakClassifiers>
    <_>
      <internalNodes>
        0 -1 64665 1.1060988903045654e-01</internalNodes>
      <leafValues>
        -5.7532358169555664e-01 2.9859223961830139e-01</leafValues></_>
    <_>
      <internalNodes>
        0 -1 4702 3.9228007197380066e-02</internalNodes>
      <leafValues>
        -7.9012793302536011e-01 1.5837456285953522e-01</leafValues></_>
    <_>
      <internalNodes>
        0 -1 10865 9.7432926297187805e-02</internalNodes>
      <leafValues>
        -6.8226391077041626e-01 1.3964520394802094e-01</leafValues></_>
    <_>
      <internalNodes>
        0 -1 7680 -4.4732052832841873e-02</internalNodes>
      <leafValues>
        6.3860994577407837e-01 -1.3897116482257843e-01</leafValues></_>
    <_>
      <internalNodes>
        0 -1 8123 7.9872235655784607e-02</internalNodes>
      <leafValues>
        -3.0005908012390137e-01 4.1044205427169800e-01</leafValues></_>
    <_>
      <internalNodes>
        0 -1 42846 -7.7425561845302582e-02</internalNodes>
      <leafValues>
        4.4855535030364990e-01 -1.6915073990821838e-01</leafValues></_>
    <_>
      <internalNodes>
        0 -1 94 -8.3176270127296448e-03</internalNodes>
      <leafValues>
        -7.8418874740600586e-01 9.2731870710849762e-02</leafValues></_>
    <_>
      <internalNodes>
        0 -1 29817 -6.8517951294779778e-03</internalNodes>
      <leafValues>
        -7.1899771690368652e-01 8.5830621421337128e-02</leafValues></_>
    <_>
      <internalNodes>
        0 -1 623 -2.9474671930074692e-02</internalNodes>
      <leafValues>
        -6.9518935680389404e-01 6.4242541790008545e-02</leafValues></_>
    <_>
      <internalNodes>
        0 -1 735 4.3564133346080780e-02</internalNodes>
      <leafValues>
        1.1363463848829269e-01 -4.9708873033523560e-01</leafValues></_>
    <_>
      <internalNodes>
        0 -1 94040 2.7690258622169495e-01</internalNodes>
      <leafValues>
        -1.1485124379396439e-01 7.0427942276000977e-01</leafValues></_>
    <_>
      <internalNodes>
        0 -1 44349 7.9238072037696838e-02</internalNodes>
      <leafValues>
        -8.4556393325328827e-02 6.9407266378402710e-01</leafValues></_>
    <_>
      <internalNodes>
        0 -1 34537 -4.7179095447063446e-02</internalNodes>
      <leafValues>
        4.8583206534385681e-01 -1.0835105925798416e-01</leafValues></_>
    <_>
      <internalNodes>
        0 -1 28747 -1.1124662123620510e-02</internalNodes>
      <leafValues>
        -6.8014478683471680e-01 9.8586440086364746e-02</leafValues></_>
    <_>
      <internalNodes>
        0 -1 25799 6.3188880681991577e-02</internalNodes>
      <leafValues>
        -1.9786648452281952e-01 3.2378581166267395e-01</leafValues></_>
    <_>
      <internalNodes>
        0 -1 50937 2.6764601469039917e-02</internalNodes>
      <leafValues>
        2.4277567863464355e-01 -2.8940227627754211e-01</leafValues></_>
    <_>
      <internalNodes>
        0 -1 63191 1.1054464615881443e-02</internalNodes>
      <leafValues>
        9.8581865429878235e-02 -5.7949161529541016e-01</leafValues></_>
    <_>
      <internalNodes>
        0 -1 65241 -2.1226096153259277e-01</internalNodes>
      <leafValues>
        5.7618403434753418e-01 -9.7803041338920593e-02</leafValues></_>
    <_>
      <internalNodes>
        0 -1 83836 -4.5563947409391403e-02</internalNodes>
      <leafValues>
        4.1780632734298706e-01 -1.2796331942081451e-01</leafValues></_>
    <_>
      <internalNodes>
        0 -1 7922 -1.7174102365970612e-02</internalNodes>
      <leafValues>
        -7.1578407287597656e-01 7.1202687919139862e-02</leafValues></_>
    <_>
      <internalNodes>
        0 -1 124350 5.9523540548980236e-03</internalNodes>
      <leafValues>
        5.8623060584068298e-02 -7.8080779314041138e-01</leafValues></_>
    <_>
      <internalNodes>
        0 -1 83306 7.4271984398365021e-02</internalNodes>
      <leafValues>
        -1.1526231467723846e-01 4.4175982475280762e-01</leafValues></_>
    <_>
      <internalNodes>
        0 -1 18390 4.1502648591995239e-01</internalNodes>
      <leafValues>
        -4.6221796423196793e-02 8.3394986391067505e-01</leafValues></_>
    <_>
      <internalNodes>
        0 -1 9822 2.3557532578706741e-02</internalNodes>
      <leafValues>
        1.3966517150402069e-01 -4.0357232093811035e-01</leafValues></_>
    <_>
      <internalNodes>
        0 -1 4674 9.0391084551811218e-02</internalNodes>
      <leafValues>
        -1.9886812567710876e-01 2.4371059238910675e-01</leafValues></_>
    <_>
      <internalNodes>
        0 -1 90415 -8.3305552601814270e-02</internalNodes>
      <leafValues>
        5.5552655458450317e-01 -1.1258691549301147e-01</leafValues></_>
    <_>
      <internalNodes>
        0 -1 64536 4.3913759291172028e-03</internalNodes>
      <leafValues>
        5.9745952486991882e-02 -8.3067226409912109e-01</leafValues></_>
    <_>
      <internalNodes>
        0 -1 9946 -1.1994879692792892e-02</internalNodes>
      <leafValues>
        -5.0903850793838501e-01 7.4418939650058746e-02</leafValues></_>
    <_>
      <internalNodes>
        0 -1 45375 1.7914233729243279e-02</internalNodes>
      <leafValues>
        7.6045349240303040e-02 -5.1939773559570312e-01</leafValues></_>
    <_>
      <internalNodes>
        0 -1 6776 1.0925871133804321e-01</internalNodes>
      <leafValues>
        -8.5582345724105835e-02 5.6819063425064087e-01</leafValues></_></weakClassifiers></stage3>
</opencv_storage>
