<?xml version="1.0"?>
<opencv_storage>
<stage0>
  <maxWeakCount>7</maxWeakCount>
  <stageThreshold>-1.8678919076919556e+00</stageThreshold>
  <weakClassifiers>
    <_>
      <internalNodes>
        0 -1 47888 1.0286029428243637e-01</internalNodes>
      <leafValues>
        -9.1728889942169189e-01 5.5121487379074097e-01</leafValues></_>
    <_>
      <internalNodes>
        0 -1 4702 4.9866020679473877e-02</internalNodes>
      <leafValues>
        -8.7872922420501709e-01 4.1322743892669678e-01</leafValues></_>
    <_>
      <internalNodes>
        0 -1 12194 5.8328270912170410e-01</internalNodes>
      <leafValues>
        -4.1491803526878357e-01 7.4287849664688110e-01</leafValues></_>
    <_>
      <internalNodes>
        0 -1 51924 4.3113675713539124e-01</internalNodes>
      <leafValues>
        -2.6506343483924866e-01 8.7516641616821289e-01</leafValues></_>
    <_>
      <internalNodes>
        0 -1 23095 5.2544760704040527e-01</internalNodes>
      <leafValues>
        -1.4100337028503418e-01 7.6384019851684570e-01</leafValues></_>
    <_>
      <internalNodes>
        0 -1 83724 -5.3315693512558937e-03</internalNodes>
      <leafValues>
        5.2716696262359619e-01 -2.3624034225940704e-01</leafValues></_>
    <_>
      <internalNodes>
        0 -1 10438 -2.2001702338457108e-02</internalNodes>
      <leafValues>
        -7.6499205827713013e-01 2.2194410860538483e-01</leafValues></_></weakClassifiers></stage0>
</opencv_storage>
