<?xml version="1.0"?>
<opencv_storage>
<stage8>
  <maxWeakCount>82</maxWeakCount>
  <stageThreshold>-1.4886369705200195e+00</stageThreshold>
  <weakClassifiers>
    <_>
      <internalNodes>
        0 -1 967 1.1406603455543518e-01</internalNodes>
      <leafValues>
        -4.2052313685417175e-01 3.1761307269334793e-02</leafValues></_>
    <_>
      <internalNodes>
        0 -1 77673 8.9481770992279053e-02</internalNodes>
      <leafValues>
        -8.7006084620952606e-02 4.5784544944763184e-01</leafValues></_>
    <_>
      <internalNodes>
        0 -1 106278 1.5334975719451904e-01</internalNodes>
      <leafValues>
        -6.5071694552898407e-02 5.8165562152862549e-01</leafValues></_>
    <_>
      <internalNodes>
        0 -1 22312 3.9143335819244385e-01</internalNodes>
      <leafValues>
        -9.7400203347206116e-02 3.5453632473945618e-01</leafValues></_>
    <_>
      <internalNodes>
        0 -1 2293 5.3644768893718719e-02</internalNodes>
      <leafValues>
        -1.1780251562595367e-01 2.9941415786743164e-01</leafValues></_>
    <_>
      <internalNodes>
        0 -1 123868 6.3055874779820442e-03</internalNodes>
      <leafValues>
        5.4878816008567810e-02 -7.0527184009552002e-01</leafValues></_>
    <_>
      <internalNodes>
        0 -1 16800 -1.4504998922348022e-01</internalNodes>
      <leafValues>
        4.2100933194160461e-01 -7.1836397051811218e-02</leafValues></_>
    <_>
      <internalNodes>
        0 -1 26692 2.9669038951396942e-02</internalNodes>
      <leafValues>
        -1.2156047672033310e-01 2.7042183279991150e-01</leafValues></_>
    <_>
      <internalNodes>
        0 -1 27837 -8.8959448039531708e-03</internalNodes>
      <leafValues>
        -4.8251307010650635e-01 6.8677686154842377e-02</leafValues></_>
    <_>
      <internalNodes>
        0 -1 64581 1.9548355042934418e-01</internalNodes>
      <leafValues>
        1.9697006791830063e-02 -7.3874801397323608e-01</leafValues></_>
    <_>
      <internalNodes>
        0 -1 87551 1.8535163253545761e-02</internalNodes>
      <leafValues>
        5.0084039568901062e-02 -4.8160257935523987e-01</leafValues></_>
    <_>
      <internalNodes>
        0 -1 7404 1.9378645345568657e-02</internalNodes>
      <leafValues>
        5.0745692104101181e-02 -4.6633172035217285e-01</leafValues></_>
    <_>
      <internalNodes>
        0 -1 19154 -1.9287364557385445e-02</internalNodes>
      <leafValues>
        -3.4540522098541260e-01 6.8400941789150238e-02</leafValues></_>
    <_>
      <internalNodes>
        0 -1 6350 -1.5949221327900887e-02</internalNodes>
      <leafValues>
        -3.4495651721954346e-01 8.0920740962028503e-02</leafValues></_>
    <_>
      <internalNodes>
        0 -1 19237 1.3029731810092926e-02</internalNodes>
      <leafValues>
        8.1857308745384216e-02 -3.0305764079093933e-01</leafValues></_>
    <_>
      <internalNodes>
        0 -1 484 2.6170119643211365e-02</internalNodes>
      <leafValues>
        -4.2517468333244324e-01 8.2521587610244751e-02</leafValues></_>
    <_>
      <internalNodes>
        0 -1 14995 -2.8352129459381104e-01</internalNodes>
      <leafValues>
        5.3111851215362549e-01 -6.1371214687824249e-02</leafValues></_>
    <_>
      <internalNodes>
        0 -1 103857 2.6754951104521751e-03</internalNodes>
      <leafValues>
        -9.4282560050487518e-02 3.2026010751724243e-01</leafValues></_>
    <_>
      <internalNodes>
        0 -1 56388 -1.0475575923919678e-01</internalNodes>
      <leafValues>
        2.2603948414325714e-01 -1.6137754917144775e-01</leafValues></_>
    <_>
      <internalNodes>
        0 -1 58543 -3.4992504864931107e-02</internalNodes>
      <leafValues>
        -2.8705045580863953e-01 1.1033666878938675e-01</leafValues></_>
    <_>
      <internalNodes>
        0 -1 10426 6.7007291316986084e-01</internalNodes>
      <leafValues>
        -8.2581207156181335e-02 5.1756304502487183e-01</leafValues></_>
    <_>
      <internalNodes>
        0 -1 37037 -5.4613336920738220e-02</internalNodes>
      <leafValues>
        6.6811227798461914e-01 -1.9829211756587029e-02</leafValues></_>
    <_>
      <internalNodes>
        0 -1 5962 4.8152647912502289e-02</internalNodes>
      <leafValues>
        -5.9898369014263153e-02 4.3640223145484924e-01</leafValues></_>
    <_>
      <internalNodes>
        0 -1 51997 -7.7187381684780121e-02</internalNodes>
      <leafValues>
        1.4176455140113831e-01 -1.8193942308425903e-01</leafValues></_>
    <_>
      <internalNodes>
        0 -1 46893 6.8479321897029877e-02</internalNodes>
      <leafValues>
        -5.3235653787851334e-02 7.4070662260055542e-01</leafValues></_>
    <_>
      <internalNodes>
        0 -1 10639 1.2072688341140747e-01</internalNodes>
      <leafValues>
        -8.4620796144008636e-02 2.6662880182266235e-01</leafValues></_>
    <_>
      <internalNodes>
        0 -1 96428 -3.4319004043936729e-03</internalNodes>
      <leafValues>
        2.5709050893783569e-01 -1.0066509246826172e-01</leafValues></_>
    <_>
      <internalNodes>
        0 -1 94221 -5.8558527380228043e-03</internalNodes>
      <leafValues>
        -7.5804382562637329e-01 2.6880716904997826e-02</leafValues></_>
    <_>
      <internalNodes>
        0 -1 67962 2.4249029159545898e-01</internalNodes>
      <leafValues>
        -9.7503848373889923e-02 2.4810281395912170e-01</leafValues></_>
    <_>
      <internalNodes>
        0 -1 50670 3.1203281134366989e-02</internalNodes>
      <leafValues>
        1.2280889600515366e-01 -1.8859615921974182e-01</leafValues></_>
    <_>
      <internalNodes>
        0 -1 59871 6.4007693529129028e-01</internalNodes>
      <leafValues>
        -8.2200668752193451e-02 3.1910938024520874e-01</leafValues></_>
    <_>
      <internalNodes>
        0 -1 106022 2.7359280735254288e-02</internalNodes>
      <leafValues>
        -8.8350310921669006e-02 2.7187424898147583e-01</leafValues></_>
    <_>
      <internalNodes>
        0 -1 74689 2.6789117604494095e-02</internalNodes>
      <leafValues>
        7.7715545892715454e-02 -4.2431604862213135e-01</leafValues></_>
    <_>
      <internalNodes>
        0 -1 1689 8.9693561196327209e-02</internalNodes>
      <leafValues>
        -1.3936305046081543e-01 2.1166743338108063e-01</leafValues></_>
    <_>
      <internalNodes>
        0 -1 763 -5.8043226599693298e-02</internalNodes>
      <leafValues>
        1.7422367632389069e-01 -1.3837298750877380e-01</leafValues></_>
    <_>
      <internalNodes>
        0 -1 119216 -1.2432409450411797e-02</internalNodes>
      <leafValues>
        -2.5040739774703979e-01 8.7625838816165924e-02</leafValues></_>
    <_>
      <internalNodes>
        0 -1 82149 3.5488554276525974e-03</internalNodes>
      <leafValues>
        -9.8697990179061890e-02 2.2897928953170776e-01</leafValues></_>
    <_>
      <internalNodes>
        0 -1 119492 1.9913239404559135e-02</internalNodes>
      <leafValues>
        1.5862056612968445e-01 -1.7341254651546478e-01</leafValues></_>
    <_>
      <internalNodes>
        0 -1 40768 1.0700018703937531e-01</internalNodes>
      <leafValues>
        -4.1316799819469452e-02 7.6415157318115234e-01</leafValues></_>
    <_>
      <internalNodes>
        0 -1 6210 -1.0655052959918976e-01</internalNodes>
      <leafValues>
        2.9831767082214355e-01 -6.1360511928796768e-02</leafValues></_>
    <_>
      <internalNodes>
        0 -1 3116 2.3342354595661163e-01</internalNodes>
      <leafValues>
        -3.6546386778354645e-02 5.6774133443832397e-01</leafValues></_>
    <_>
      <internalNodes>
        0 -1 50895 1.5858949720859528e-01</internalNodes>
      <leafValues>
        -3.3910349011421204e-02 5.4753476381301880e-01</leafValues></_>
    <_>
      <internalNodes>
        0 -1 85282 -4.9716725945472717e-02</internalNodes>
      <leafValues>
        4.8687997460365295e-01 -4.4868003576993942e-02</leafValues></_>
    <_>
      <internalNodes>
        0 -1 39227 7.4464905261993408e-01</internalNodes>
      <leafValues>
        -6.7669428884983063e-02 2.8227201104164124e-01</leafValues></_>
    <_>
      <internalNodes>
        0 -1 14340 6.3003122806549072e-01</internalNodes>
      <leafValues>
        -7.1972794830799103e-02 3.3887183666229248e-01</leafValues></_>
    <_>
      <internalNodes>
        0 -1 115525 -1.8093399703502655e-02</internalNodes>
      <leafValues>
        6.0500395298004150e-01 -3.1736243516206741e-02</leafValues></_>
    <_>
      <internalNodes>
        0 -1 26035 -1.3416472822427750e-02</internalNodes>
      <leafValues>
        -3.7268060445785522e-01 6.1672702431678772e-02</leafValues></_>
    <_>
      <internalNodes>
        0 -1 37971 -1.7531976103782654e-02</internalNodes>
      <leafValues>
        5.4482054710388184e-01 -4.3005116283893585e-02</leafValues></_>
    <_>
      <internalNodes>
        0 -1 16806 6.3495111465454102e-01</internalNodes>
      <leafValues>
        -5.2232868969440460e-02 3.6179795861244202e-01</leafValues></_>
    <_>
      <internalNodes>
        0 -1 70585 -1.6861289739608765e-02</internalNodes>
      <leafValues>
        -5.9220772981643677e-01 3.4803897142410278e-02</leafValues></_>
    <_>
      <internalNodes>
        0 -1 4630 1.2522229552268982e-01</internalNodes>
      <leafValues>
        9.4464167952537537e-02 -2.0794202387332916e-01</leafValues></_>
    <_>
      <internalNodes>
        0 -1 41540 3.1092911958694458e-01</internalNodes>
      <leafValues>
        -1.1221531033515930e-01 1.9629503786563873e-01</leafValues></_>
    <_>
      <internalNodes>
        0 -1 6659 2.6624044775962830e-01</internalNodes>
      <leafValues>
        2.8532717376947403e-02 -8.1360721588134766e-01</leafValues></_>
    <_>
      <internalNodes>
        0 -1 19711 1.7908768355846405e-01</internalNodes>
      <leafValues>
        1.7922656610608101e-02 -7.5816118717193604e-01</leafValues></_>
    <_>
      <internalNodes>
        0 -1 105905 1.2584069371223450e-01</internalNodes>
      <leafValues>
        3.0923217535018921e-02 -5.2472245693206787e-01</leafValues></_>
    <_>
      <internalNodes>
        0 -1 10030 -9.8685026168823242e-03</internalNodes>
      <leafValues>
        -9.1541367769241333e-01 1.5234571881592274e-02</leafValues></_>
    <_>
      <internalNodes>
        0 -1 85724 -1.5965681523084641e-02</internalNodes>
      <leafValues>
        -8.2695555686950684e-01 1.5478843823075294e-02</leafValues></_>
    <_>
      <internalNodes>
        0 -1 110386 2.7817406225949526e-04</internalNodes>
      <leafValues>
        -8.3049267530441284e-02 2.1931250393390656e-01</leafValues></_>
    <_>
      <internalNodes>
        0 -1 72646 8.9138010516762733e-03</internalNodes>
      <leafValues>
        3.5028606653213501e-02 -5.1018399000167847e-01</leafValues></_>
    <_>
      <internalNodes>
        0 -1 67243 4.7041970491409302e-01</internalNodes>
      <leafValues>
        1.7596071586012840e-02 -8.9296245574951172e-01</leafValues></_>
    <_>
      <internalNodes>
        0 -1 110388 -2.3618500563316047e-04</internalNodes>
      <leafValues>
        1.8201345205307007e-01 -1.0169958323240280e-01</leafValues></_>
    <_>
      <internalNodes>
        0 -1 4325 2.5567781180143356e-02</internalNodes>
      <leafValues>
        2.2617647424340248e-02 -7.3034667968750000e-01</leafValues></_>
    <_>
      <internalNodes>
        0 -1 10990 -9.6517447382211685e-03</internalNodes>
      <leafValues>
        -2.5480037927627563e-01 6.2667317688465118e-02</leafValues></_>
    <_>
      <internalNodes>
        0 -1 133 1.7085701692849398e-03</internalNodes>
      <leafValues>
        -9.3879885971546173e-02 1.8471169471740723e-01</leafValues></_>
    <_>
      <internalNodes>
        0 -1 19771 -1.0040794499218464e-02</internalNodes>
      <leafValues>
        -6.7678612470626831e-01 2.5690644979476929e-02</leafValues></_>
    <_>
      <internalNodes>
        0 -1 27401 -2.6792455464601517e-03</internalNodes>
      <leafValues>
        -5.5204945802688599e-01 2.7627164497971535e-02</leafValues></_>
    <_>
      <internalNodes>
        0 -1 80493 -8.2604721188545227e-02</internalNodes>
      <leafValues>
        2.2103139758110046e-01 -8.1381529569625854e-02</leafValues></_>
    <_>
      <internalNodes>
        0 -1 118983 2.2325681149959564e-01</internalNodes>
      <leafValues>
        -3.8622159510850906e-02 4.6393939852714539e-01</leafValues></_>
    <_>
      <internalNodes>
        0 -1 121900 1.5892479568719864e-02</internalNodes>
      <leafValues>
        8.3761066198348999e-02 -2.3850543797016144e-01</leafValues></_>
    <_>
      <internalNodes>
        0 -1 114646 1.1586609762161970e-03</internalNodes>
      <leafValues>
        -8.7679378688335419e-02 2.0317557454109192e-01</leafValues></_>
    <_>
      <internalNodes>
        0 -1 119240 -3.4996233880519867e-02</internalNodes>
      <leafValues>
        -4.6538552641868591e-01 4.1260439902544022e-02</leafValues></_>
    <_>
      <internalNodes>
        0 -1 121520 6.7109482188243419e-05</internalNodes>
      <leafValues>
        -1.3156208395957947e-01 1.6549235582351685e-01</leafValues></_>
    <_>
      <internalNodes>
        0 -1 108878 6.4618545584380627e-03</internalNodes>
      <leafValues>
        2.4542760103940964e-02 -7.4364763498306274e-01</leafValues></_>
    <_>
      <internalNodes>
        0 -1 99980 1.5919178724288940e-02</internalNodes>
      <leafValues>
        1.3845483772456646e-02 -8.8906800746917725e-01</leafValues></_>
    <_>
      <internalNodes>
        0 -1 33858 2.3976427316665649e-01</internalNodes>
      <leafValues>
        1.6299592331051826e-02 -8.0411905050277710e-01</leafValues></_>
    <_>
      <internalNodes>
        0 -1 9887 8.0225747078657150e-03</internalNodes>
      <leafValues>
        5.3410265594720840e-02 -3.1393548846244812e-01</leafValues></_>
    <_>
      <internalNodes>
        0 -1 9803 6.9851756095886230e-02</internalNodes>
      <leafValues>
        -3.3565189689397812e-02 6.4069074392318726e-01</leafValues></_>
    <_>
      <internalNodes>
        0 -1 86872 -7.3952935636043549e-03</internalNodes>
      <leafValues>
        -6.8378448486328125e-01 3.0875453725457191e-02</leafValues></_>
    <_>
      <internalNodes>
        0 -1 18866 -8.0190062522888184e-02</internalNodes>
      <leafValues>
        7.0073854923248291e-01 -2.8031451627612114e-02</leafValues></_>
    <_>
      <internalNodes>
        0 -1 18788 6.1389000620692968e-05</internalNodes>
      <leafValues>
        -1.0211366415023804e-01 1.6123458743095398e-01</leafValues></_>
    <_>
      <internalNodes>
        0 -1 95232 4.2648401856422424e-01</internalNodes>
      <leafValues>
        -3.7161752581596375e-02 4.7780144214630127e-01</leafValues></_>
    <_>
      <internalNodes>
        0 -1 19212 -6.0630212537944317e-03</internalNodes>
      <leafValues>
        -4.2962369322776794e-01 5.0289239734411240e-02</leafValues></_></weakClassifiers></stage8>
</opencv_storage>
