<?xml version="1.0"?>
<opencv_storage>
<stage14>
  <maxWeakCount>60</maxWeakCount>
  <stageThreshold>-1.6033675670623779e+00</stageThreshold>
  <weakClassifiers>
    <_>
      <internalNodes>
        0 -1 184755 2.4198073148727417e-01</internalNodes>
      <leafValues>
        -4.2612138390541077e-01 3.5328969359397888e-01</leafValues></_>
    <_>
      <internalNodes>
        0 -1 156443 3.7761151790618896e-02</internalNodes>
      <leafValues>
        -3.1057056784629822e-01 2.3244240880012512e-01</leafValues></_>
    <_>
      <internalNodes>
        0 -1 182810 6.6281154751777649e-02</internalNodes>
      <leafValues>
        -1.6696964204311371e-01 3.4661060571670532e-01</leafValues></_>
    <_>
      <internalNodes>
        0 -1 168465 3.3194348216056824e-03</internalNodes>
      <leafValues>
        -1.6725184023380280e-01 3.0330851674079895e-01</leafValues></_>
    <_>
      <internalNodes>
        0 -1 137288 6.3443882390856743e-04</internalNodes>
      <leafValues>
        1.2493745237588882e-01 -4.6484297513961792e-01</leafValues></_>
    <_>
      <internalNodes>
        0 -1 90875 -1.2558789923787117e-02</internalNodes>
      <leafValues>
        4.2880472540855408e-01 -1.0268461704254150e-01</leafValues></_>
    <_>
      <internalNodes>
        0 -1 9519 -1.4187751710414886e-01</internalNodes>
      <leafValues>
        3.9701578021049500e-01 -1.4156116545200348e-01</leafValues></_>
    <_>
      <internalNodes>
        0 -1 21266 4.4272612780332565e-02</internalNodes>
      <leafValues>
        -2.5270435214042664e-01 1.9835415482521057e-01</leafValues></_>
    <_>
      <internalNodes>
        0 -1 187216 -1.9978389143943787e-02</internalNodes>
      <leafValues>
        3.9214324951171875e-01 -1.3241501152515411e-01</leafValues></_>
    <_>
      <internalNodes>
        0 -1 187182 3.6269833799451590e-04</internalNodes>
      <leafValues>
        -1.3869048655033112e-01 2.4412110447883606e-01</leafValues></_>
    <_>
      <internalNodes>
        0 -1 120525 2.3931354284286499e-02</internalNodes>
      <leafValues>
        8.3944104611873627e-02 -5.0551009178161621e-01</leafValues></_>
    <_>
      <internalNodes>
        0 -1 181621 3.2829400151968002e-04</internalNodes>
      <leafValues>
        -1.1584290862083435e-01 2.7487862110137939e-01</leafValues></_>
    <_>
      <internalNodes>
        0 -1 136350 -1.7852650955319405e-02</internalNodes>
      <leafValues>
        -8.4526920318603516e-01 2.9982397332787514e-02</leafValues></_>
    <_>
      <internalNodes>
        0 -1 189108 -1.3200147077441216e-03</internalNodes>
      <leafValues>
        1.9252605736255646e-01 -1.6556374728679657e-01</leafValues></_>
    <_>
      <internalNodes>
        0 -1 96628 -2.1767776459455490e-02</internalNodes>
      <leafValues>
        3.9870029687881470e-01 -6.3171163201332092e-02</leafValues></_>
    <_>
      <internalNodes>
        0 -1 107635 -2.3462506011128426e-02</internalNodes>
      <leafValues>
        4.1092848777770996e-01 -8.6154438555240631e-02</leafValues></_>
    <_>
      <internalNodes>
        0 -1 66865 4.6830348670482635e-02</internalNodes>
      <leafValues>
        5.5238336324691772e-02 -6.1916160583496094e-01</leafValues></_>
    <_>
      <internalNodes>
        0 -1 187215 3.3638514578342438e-03</internalNodes>
      <leafValues>
        -7.8690357506275177e-02 3.9422416687011719e-01</leafValues></_>
    <_>
      <internalNodes>
        0 -1 113553 6.7112334072589874e-03</internalNodes>
      <leafValues>
        4.2053773999214172e-02 -7.8987371921539307e-01</leafValues></_>
    <_>
      <internalNodes>
        0 -1 75162 -1.0483269579708576e-03</internalNodes>
      <leafValues>
        3.6359259486198425e-01 -7.9983174800872803e-02</leafValues></_>
    <_>
      <internalNodes>
        0 -1 93058 -2.2740200161933899e-02</internalNodes>
      <leafValues>
        -3.8436067104339600e-01 6.9021925330162048e-02</leafValues></_>
    <_>
      <internalNodes>
        0 -1 54191 -1.9222032278776169e-04</internalNodes>
      <leafValues>
        2.6236811280250549e-01 -1.0748939961194992e-01</leafValues></_>
    <_>
      <internalNodes>
        0 -1 183423 -8.2496246322989464e-03</internalNodes>
      <leafValues>
        -6.2223249673843384e-01 4.3678663671016693e-02</leafValues></_>
    <_>
      <internalNodes>
        0 -1 86961 -8.7763613555580378e-04</internalNodes>
      <leafValues>
        2.2283633053302765e-01 -1.1791667342185974e-01</leafValues></_>
    <_>
      <internalNodes>
        0 -1 77468 -3.3703988790512085e-01</internalNodes>
      <leafValues>
        4.9843710660934448e-01 -5.7937681674957275e-02</leafValues></_>
    <_>
      <internalNodes>
        0 -1 108380 -4.3686255812644958e-03</internalNodes>
      <leafValues>
        -7.5023221969604492e-01 4.4671222567558289e-02</leafValues></_>
    <_>
      <internalNodes>
        0 -1 144684 9.1147236526012421e-03</internalNodes>
      <leafValues>
        8.8260002434253693e-02 -2.7721205353736877e-01</leafValues></_>
    <_>
      <internalNodes>
        0 -1 43749 -1.1315007507801056e-01</internalNodes>
      <leafValues>
        4.6179148554801941e-01 -6.9914370775222778e-02</leafValues></_>
    <_>
      <internalNodes>
        0 -1 148401 -3.6863156128674746e-04</internalNodes>
      <leafValues>
        2.4016930162906647e-01 -9.9778793752193451e-02</leafValues></_>
    <_>
      <internalNodes>
        0 -1 148415 9.4902364071458578e-04</internalNodes>
      <leafValues>
        -1.0010890662670135e-01 3.1810945272445679e-01</leafValues></_>
    <_>
      <internalNodes>
        0 -1 93587 -1.0063849389553070e-02</internalNodes>
      <leafValues>
        -3.6747249960899353e-01 7.5181178748607635e-02</leafValues></_>
    <_>
      <internalNodes>
        0 -1 165781 -2.0668936893343925e-02</internalNodes>
      <leafValues>
        6.1254459619522095e-01 -4.3828703463077545e-02</leafValues></_>
    <_>
      <internalNodes>
        0 -1 165240 7.9005099833011627e-03</internalNodes>
      <leafValues>
        8.1887014210224152e-02 -3.1846737861633301e-01</leafValues></_>
    <_>
      <internalNodes>
        0 -1 149182 -8.0398598220199347e-04</internalNodes>
      <leafValues>
        2.5316575169563293e-01 -1.0042175650596619e-01</leafValues></_>
    <_>
      <internalNodes>
        0 -1 189609 -9.5727620646357536e-03</internalNodes>
      <leafValues>
        -3.8688239455223083e-01 6.7389912903308868e-02</leafValues></_>
    <_>
      <internalNodes>
        0 -1 12261 7.4341055005788803e-04</internalNodes>
      <leafValues>
        -9.8111175000667572e-02 2.6639649271965027e-01</leafValues></_>
    <_>
      <internalNodes>
        0 -1 131213 6.2293314840644598e-04</internalNodes>
      <leafValues>
        -1.1895875632762909e-01 1.9848470389842987e-01</leafValues></_>
    <_>
      <internalNodes>
        0 -1 11959 4.5300401747226715e-02</internalNodes>
      <leafValues>
        3.7001982331275940e-02 -6.9995445013046265e-01</leafValues></_>
    <_>
      <internalNodes>
        0 -1 485 -1.3372587040066719e-02</internalNodes>
      <leafValues>
        -8.1187075376510620e-01 2.4279454723000526e-02</leafValues></_>
    <_>
      <internalNodes>
        0 -1 67222 3.3628558740019798e-03</internalNodes>
      <leafValues>
        -1.8218895792961121e-01 1.2840889394283295e-01</leafValues></_>
    <_>
      <internalNodes>
        0 -1 58132 4.7808303497731686e-03</internalNodes>
      <leafValues>
        -1.0508061945438385e-01 2.8815034031867981e-01</leafValues></_>
    <_>
      <internalNodes>
        0 -1 122750 4.2987074702978134e-03</internalNodes>
      <leafValues>
        -3.1757158041000366e-01 9.7840115427970886e-02</leafValues></_>
    <_>
      <internalNodes>
        0 -1 57480 2.4829447269439697e-02</internalNodes>
      <leafValues>
        3.0250810086727142e-02 -6.8351644277572632e-01</leafValues></_>
    <_>
      <internalNodes>
        0 -1 147925 1.1819785833358765e-01</internalNodes>
      <leafValues>
        2.3393634706735611e-02 -8.5764753818511963e-01</leafValues></_>
    <_>
      <internalNodes>
        0 -1 12055 -1.4891360886394978e-02</internalNodes>
      <leafValues>
        -7.2417980432510376e-01 2.4345325306057930e-02</leafValues></_>
    <_>
      <internalNodes>
        0 -1 1960 5.1062665879726410e-02</internalNodes>
      <leafValues>
        3.0718745663762093e-02 -6.2355506420135498e-01</leafValues></_>
    <_>
      <internalNodes>
        0 -1 12101 2.7255306486040354e-04</internalNodes>
      <leafValues>
        -1.1578222364187241e-01 2.0639564096927643e-01</leafValues></_>
    <_>
      <internalNodes>
        0 -1 154925 8.9006787165999413e-03</internalNodes>
      <leafValues>
        3.1920943409204483e-02 -7.5607120990753174e-01</leafValues></_>
    <_>
      <internalNodes>
        0 -1 21612 -2.0638018846511841e-01</internalNodes>
      <leafValues>
        -9.7662019729614258e-01 1.7421921715140343e-02</leafValues></_>
    <_>
      <internalNodes>
        0 -1 129913 -2.4694404564797878e-03</internalNodes>
      <leafValues>
        -7.4795848131179810e-01 2.3323338478803635e-02</leafValues></_>
    <_>
      <internalNodes>
        0 -1 181224 3.4155361936427653e-04</internalNodes>
      <leafValues>
        -9.5940604805946350e-02 2.5269132852554321e-01</leafValues></_>
    <_>
      <internalNodes>
        0 -1 15970 -7.1262954734265804e-03</internalNodes>
      <leafValues>
        -7.8858339786529541e-01 3.0484626069664955e-02</leafValues></_>
    <_>
      <internalNodes>
        0 -1 175489 2.7266913093626499e-04</internalNodes>
      <leafValues>
        -1.0340952128171921e-01 2.2032961249351501e-01</leafValues></_>
    <_>
      <internalNodes>
        0 -1 128751 9.9928498268127441e-02</internalNodes>
      <leafValues>
        -4.8422414809465408e-02 4.4626462459564209e-01</leafValues></_>
    <_>
      <internalNodes>
        0 -1 60387 2.3952154815196991e-01</internalNodes>
      <leafValues>
        6.7419596016407013e-02 -3.8659682869911194e-01</leafValues></_>
    <_>
      <internalNodes>
        0 -1 23771 -9.2370271682739258e-02</internalNodes>
      <leafValues>
        -7.2652411460876465e-01 2.8058817610144615e-02</leafValues></_>
    <_>
      <internalNodes>
        0 -1 162489 -5.2962644258514047e-04</internalNodes>
      <leafValues>
        2.4359537661075592e-01 -9.6073262393474579e-02</leafValues></_>
    <_>
      <internalNodes>
        0 -1 345 5.7879738509654999e-02</internalNodes>
      <leafValues>
        3.7996858358383179e-02 -6.5167051553726196e-01</leafValues></_>
    <_>
      <internalNodes>
        0 -1 76548 1.4258378744125366e-01</internalNodes>
      <leafValues>
        -4.0313754230737686e-02 6.7714542150497437e-01</leafValues></_>
    <_>
      <internalNodes>
        0 -1 159069 -1.9070394337177277e-03</internalNodes>
      <leafValues>
        -2.8950491547584534e-01 9.0733967721462250e-02</leafValues></_></weakClassifiers></stage14>
</opencv_storage>
