<?xml version="1.0"?>
<opencv_storage>
<stage3>
  <maxWeakCount>17</maxWeakCount>
  <stageThreshold>-2.1178240776062012e+00</stageThreshold>
  <weakClassifiers>
    <_>
      <internalNodes>
        0 -1 699 1.3660954236984253e+00</internalNodes>
      <leafValues>
        -7.8174775838851929e-01 9.0929561853408813e-01</leafValues></_>
    <_>
      <internalNodes>
        0 -1 19039 1.5408413112163544e-01</internalNodes>
      <leafValues>
        -4.5858678221702576e-01 6.9409972429275513e-01</leafValues></_>
    <_>
      <internalNodes>
        0 -1 74108 4.0377929806709290e-01</internalNodes>
      <leafValues>
        -2.1138969063758850e-01 7.0204252004623413e-01</leafValues></_>
    <_>
      <internalNodes>
        0 -1 103726 -5.4557986557483673e-02</internalNodes>
      <leafValues>
        3.4106093645095825e-01 -3.6267083883285522e-01</leafValues></_>
    <_>
      <internalNodes>
        0 -1 78155 -2.3741918802261353e-01</internalNodes>
      <leafValues>
        7.0369499921798706e-01 -1.9512014091014862e-01</leafValues></_>
    <_>
      <internalNodes>
        0 -1 58609 1.5235910192131996e-02</internalNodes>
      <leafValues>
        -1.8243195116519928e-01 5.7175976037979126e-01</leafValues></_>
    <_>
      <internalNodes>
        0 -1 93115 6.9286100566387177e-02</internalNodes>
      <leafValues>
        1.6941609978675842e-01 -7.8380841016769409e-01</leafValues></_>
    <_>
      <internalNodes>
        0 -1 12803 3.5037070512771606e-02</internalNodes>
      <leafValues>
        1.3444820046424866e-01 -5.3240716457366943e-01</leafValues></_>
    <_>
      <internalNodes>
        0 -1 128011 -2.6674561668187380e-03</internalNodes>
      <leafValues>
        -7.5731891393661499e-01 1.2366358190774918e-01</leafValues></_>
    <_>
      <internalNodes>
        0 -1 11973 2.8647329658269882e-02</internalNodes>
      <leafValues>
        9.4270177185535431e-02 -8.5404694080352783e-01</leafValues></_>
    <_>
      <internalNodes>
        0 -1 55100 -1.8874470144510269e-02</internalNodes>
      <leafValues>
        4.8508974909782410e-01 -1.7616061866283417e-01</leafValues></_>
    <_>
      <internalNodes>
        0 -1 675 -8.2228548824787140e-02</internalNodes>
      <leafValues>
        -9.7038471698760986e-01 1.1123560369014740e-01</leafValues></_>
    <_>
      <internalNodes>
        0 -1 136309 3.2878637313842773e-02</internalNodes>
      <leafValues>
        -2.1229271590709686e-01 4.5722845196723938e-01</leafValues></_>
    <_>
      <internalNodes>
        0 -1 117113 -1.0750319063663483e-01</internalNodes>
      <leafValues>
        6.2423384189605713e-01 -1.1251808702945709e-01</leafValues></_>
    <_>
      <internalNodes>
        0 -1 155730 7.5372502207756042e-02</internalNodes>
      <leafValues>
        -2.7327188849449158e-01 3.0444583296775818e-01</leafValues></_>
    <_>
      <internalNodes>
        0 -1 145404 -3.8246843963861465e-02</internalNodes>
      <leafValues>
        6.8806159496307373e-01 -1.1168646067380905e-01</leafValues></_>
    <_>
      <internalNodes>
        0 -1 167890 -1.2109251692891121e-02</internalNodes>
      <leafValues>
        4.7102469205856323e-01 -1.6024014353752136e-01</leafValues></_></weakClassifiers></stage3>
</opencv_storage>
