<?xml version="1.0"?>
<opencv_storage>
<stage4>
  <maxWeakCount>17</maxWeakCount>
  <stageThreshold>-2.1986413002014160e+00</stageThreshold>
  <weakClassifiers>
    <_>
      <internalNodes>
        0 -1 699 1.3892325162887573e+00</internalNodes>
      <leafValues>
        -7.6693528890609741e-01 8.5840708017349243e-01</leafValues></_>
    <_>
      <internalNodes>
        0 -1 19843 1.8254414200782776e-01</internalNodes>
      <leafValues>
        -3.6662489175796509e-01 7.1531963348388672e-01</leafValues></_>
    <_>
      <internalNodes>
        0 -1 19724 -3.3788882195949554e-02</internalNodes>
      <leafValues>
        4.3471601605415344e-01 -3.5397136211395264e-01</leafValues></_>
    <_>
      <internalNodes>
        0 -1 166496 3.3884741365909576e-02</internalNodes>
      <leafValues>
        -3.7156721949577332e-01 4.7216928005218506e-01</leafValues></_>
    <_>
      <internalNodes>
        0 -1 12989 6.5034456551074982e-02</internalNodes>
      <leafValues>
        -2.8426724672317505e-01 4.1316303610801697e-01</leafValues></_>
    <_>
      <internalNodes>
        0 -1 168588 2.6866393163800240e-03</internalNodes>
      <leafValues>
        -2.3895213007926941e-01 3.7229710817337036e-01</leafValues></_>
    <_>
      <internalNodes>
        0 -1 108175 1.0944044589996338e-01</internalNodes>
      <leafValues>
        -1.5976457297801971e-01 4.9394953250885010e-01</leafValues></_>
    <_>
      <internalNodes>
        0 -1 5414 -1.6487276554107666e-01</internalNodes>
      <leafValues>
        3.5814687609672546e-01 -2.6634728908538818e-01</leafValues></_>
    <_>
      <internalNodes>
        0 -1 161910 -1.4052274636924267e-02</internalNodes>
      <leafValues>
        6.0742861032485962e-01 -2.2189316153526306e-01</leafValues></_>
    <_>
      <internalNodes>
        0 -1 126007 5.8421390131115913e-03</internalNodes>
      <leafValues>
        9.7421020269393921e-02 -8.2684820890426636e-01</leafValues></_>
    <_>
      <internalNodes>
        0 -1 88839 -8.3169788122177124e-02</internalNodes>
      <leafValues>
        5.0045222043991089e-01 -1.6561065614223480e-01</leafValues></_>
    <_>
      <internalNodes>
        0 -1 119081 3.8945280015468597e-02</internalNodes>
      <leafValues>
        -1.1127918958663940e-01 6.1105740070343018e-01</leafValues></_>
    <_>
      <internalNodes>
        0 -1 170138 -5.3622885607182980e-03</internalNodes>
      <leafValues>
        3.4240767359733582e-01 -1.9294558465480804e-01</leafValues></_>
    <_>
      <internalNodes>
        0 -1 31590 7.2996169328689575e-03</internalNodes>
      <leafValues>
        -1.5343634784221649e-01 4.5398613810539246e-01</leafValues></_>
    <_>
      <internalNodes>
        0 -1 128535 -8.0172996968030930e-04</internalNodes>
      <leafValues>
        -6.5009522438049316e-01 1.1241281777620316e-01</leafValues></_>
    <_>
      <internalNodes>
        0 -1 115907 1.2881409376859665e-02</internalNodes>
      <leafValues>
        -1.5968789160251617e-01 4.0405544638633728e-01</leafValues></_>
    <_>
      <internalNodes>
        0 -1 19154 6.6409185528755188e-02</internalNodes>
      <leafValues>
        -5.4701888561248779e-01 1.2659956514835358e-01</leafValues></_></weakClassifiers></stage4>
</opencv_storage>
