<?xml version="1.0"?>
<opencv_storage>
<stage15>
  <maxWeakCount>77</maxWeakCount>
  <stageThreshold>-1.6081602573394775e+00</stageThreshold>
  <weakClassifiers>
    <_>
      <internalNodes>
        0 -1 71531 2.5210750102996826e-01</internalNodes>
      <leafValues>
        -3.7408721446990967e-01 3.3355841040611267e-01</leafValues></_>
    <_>
      <internalNodes>
        0 -1 146365 6.1438037082552910e-03</internalNodes>
      <leafValues>
        -3.0578309297561646e-01 2.3065923154354095e-01</leafValues></_>
    <_>
      <internalNodes>
        0 -1 156594 9.3130499124526978e-02</internalNodes>
      <leafValues>
        -2.0408222079277039e-01 2.7438732981681824e-01</leafValues></_>
    <_>
      <internalNodes>
        0 -1 190596 -1.8287688726559281e-03</internalNodes>
      <leafValues>
        2.7382063865661621e-01 -1.9368188083171844e-01</leafValues></_>
    <_>
      <internalNodes>
        0 -1 116779 3.4018929582089186e-03</internalNodes>
      <leafValues>
        -1.9854338467121124e-01 2.0509167015552521e-01</leafValues></_>
    <_>
      <internalNodes>
        0 -1 153875 -4.0144849568605423e-02</internalNodes>
      <leafValues>
        5.4458689689636230e-01 -6.3443951308727264e-02</leafValues></_>
    <_>
      <internalNodes>
        0 -1 168407 6.0853180475533009e-03</internalNodes>
      <leafValues>
        -1.2398048490285873e-01 2.6760256290435791e-01</leafValues></_>
    <_>
      <internalNodes>
        0 -1 96351 -9.3786139041185379e-03</internalNodes>
      <leafValues>
        -5.0354486703872681e-01 6.8866506218910217e-02</leafValues></_>
    <_>
      <internalNodes>
        0 -1 22868 -3.7498467136174440e-03</internalNodes>
      <leafValues>
        2.1699969470500946e-01 -1.6773705184459686e-01</leafValues></_>
    <_>
      <internalNodes>
        0 -1 135547 2.0924642682075500e-02</internalNodes>
      <leafValues>
        -1.5411175787448883e-01 2.6370063424110413e-01</leafValues></_>
    <_>
      <internalNodes>
        0 -1 32571 1.2273971922695637e-02</internalNodes>
      <leafValues>
        4.7435589134693146e-02 -5.2704948186874390e-01</leafValues></_>
    <_>
      <internalNodes>
        0 -1 174254 -1.4780892524868250e-03</internalNodes>
      <leafValues>
        3.2596635818481445e-01 -1.0490845888853073e-01</leafValues></_>
    <_>
      <internalNodes>
        0 -1 118160 -2.2998880594968796e-03</internalNodes>
      <leafValues>
        -5.3123748302459717e-01 7.9263553023338318e-02</leafValues></_>
    <_>
      <internalNodes>
        0 -1 36798 2.4517489969730377e-01</internalNodes>
      <leafValues>
        2.9083020985126495e-02 -6.7906117439270020e-01</leafValues></_>
    <_>
      <internalNodes>
        0 -1 89347 1.8422558903694153e-02</internalNodes>
      <leafValues>
        -2.8637078404426575e-01 8.4941506385803223e-02</leafValues></_>
    <_>
      <internalNodes>
        0 -1 136549 -2.5052374228835106e-02</internalNodes>
      <leafValues>
        6.3381278514862061e-01 -5.6678920984268188e-02</leafValues></_>
    <_>
      <internalNodes>
        0 -1 89383 8.1534802913665771e-02</internalNodes>
      <leafValues>
        -3.3748473972082138e-02 5.1450091600418091e-01</leafValues></_>
    <_>
      <internalNodes>
        0 -1 65367 -2.5762785226106644e-02</internalNodes>
      <leafValues>
        3.2534685730934143e-01 -1.0685081779956818e-01</leafValues></_>
    <_>
      <internalNodes>
        0 -1 82887 -1.0242450982332230e-02</internalNodes>
      <leafValues>
        -6.4776510000228882e-01 5.4175335913896561e-02</leafValues></_>
    <_>
      <internalNodes>
        0 -1 182212 8.9062098413705826e-03</internalNodes>
      <leafValues>
        -9.8848648369312286e-02 2.6793038845062256e-01</leafValues></_>
    <_>
      <internalNodes>
        0 -1 171780 -2.1327430382370949e-02</internalNodes>
      <leafValues>
        5.3052341938018799e-01 -5.9724140912294388e-02</leafValues></_>
    <_>
      <internalNodes>
        0 -1 190807 -5.0974119221791625e-04</internalNodes>
      <leafValues>
        2.0825572311878204e-01 -1.0529180616140366e-01</leafValues></_>
    <_>
      <internalNodes>
        0 -1 55731 -9.8327584564685822e-03</internalNodes>
      <leafValues>
        -8.4927588701248169e-01 2.9547011479735374e-02</leafValues></_>
    <_>
      <internalNodes>
        0 -1 102939 4.9331539776176214e-04</internalNodes>
      <leafValues>
        -9.2851929366588593e-02 2.5092750787734985e-01</leafValues></_>
    <_>
      <internalNodes>
        0 -1 102939 -4.5775540638715029e-04</internalNodes>
      <leafValues>
        2.5995510816574097e-01 -9.6988439559936523e-02</leafValues></_>
    <_>
      <internalNodes>
        0 -1 110086 -1.5938996803015471e-03</internalNodes>
      <leafValues>
        -3.7428593635559082e-01 6.8180181086063385e-02</leafValues></_>
    <_>
      <internalNodes>
        0 -1 106076 -1.7498379945755005e-01</internalNodes>
      <leafValues>
        8.8929355144500732e-01 -3.5188231617212296e-02</leafValues></_>
    <_>
      <internalNodes>
        0 -1 127984 -1.3133117463439703e-03</internalNodes>
      <leafValues>
        -4.9695181846618652e-01 6.0083817690610886e-02</leafValues></_>
    <_>
      <internalNodes>
        0 -1 96619 1.4200650155544281e-02</internalNodes>
      <leafValues>
        -1.0490798205137253e-01 2.3042947053909302e-01</leafValues></_>
    <_>
      <internalNodes>
        0 -1 96604 -7.6267267577350140e-03</internalNodes>
      <leafValues>
        3.3291882276535034e-01 -9.9740453064441681e-02</leafValues></_>
    <_>
      <internalNodes>
        0 -1 176772 -1.9817505031824112e-02</internalNodes>
      <leafValues>
        3.2669728994369507e-01 -7.0621035993099213e-02</leafValues></_>
    <_>
      <internalNodes>
        0 -1 181367 1.1275736615061760e-02</internalNodes>
      <leafValues>
        3.2861903309822083e-02 -6.6482555866241455e-01</leafValues></_>
    <_>
      <internalNodes>
        0 -1 11241 2.1832469850778580e-02</internalNodes>
      <leafValues>
        2.4228554219007492e-02 -7.7615183591842651e-01</leafValues></_>
    <_>
      <internalNodes>
        0 -1 24756 -1.3374184491112828e-03</internalNodes>
      <leafValues>
        2.1754607558250427e-01 -1.1092828959226608e-01</leafValues></_>
    <_>
      <internalNodes>
        0 -1 73441 -1.4569126069545746e-02</internalNodes>
      <leafValues>
        -5.6685274839401245e-01 4.2966034263372421e-02</leafValues></_>
    <_>
      <internalNodes>
        0 -1 136796 -3.1875271350145340e-02</internalNodes>
      <leafValues>
        4.7878947854042053e-01 -5.3811784833669662e-02</leafValues></_>
    <_>
      <internalNodes>
        0 -1 111913 7.7226072549819946e-02</internalNodes>
      <leafValues>
        -5.3155098110437393e-02 3.8412949442863464e-01</leafValues></_>
    <_>
      <internalNodes>
        0 -1 169537 1.8258228898048401e-02</internalNodes>
      <leafValues>
        3.3853303641080856e-02 -6.7175966501235962e-01</leafValues></_>
    <_>
      <internalNodes>
        0 -1 24214 -6.0544349253177643e-04</internalNodes>
      <leafValues>
        2.7439659833908081e-01 -9.4587177038192749e-02</leafValues></_>
    <_>
      <internalNodes>
        0 -1 37610 -1.2636388419196010e-03</internalNodes>
      <leafValues>
        1.5741941332817078e-01 -1.5711092948913574e-01</leafValues></_>
    <_>
      <internalNodes>
        0 -1 85114 1.4443393796682358e-02</internalNodes>
      <leafValues>
        2.7734868228435516e-02 -8.9160972833633423e-01</leafValues></_>
    <_>
      <internalNodes>
        0 -1 92929 2.4274870753288269e-02</internalNodes>
      <leafValues>
        4.4304341077804565e-02 -4.3794676661491394e-01</leafValues></_>
    <_>
      <internalNodes>
        0 -1 125594 5.7375736534595490e-02</internalNodes>
      <leafValues>
        -3.6825194954872131e-02 6.2952852249145508e-01</leafValues></_>
    <_>
      <internalNodes>
        0 -1 24668 5.2249066531658173e-02</internalNodes>
      <leafValues>
        3.5617999732494354e-02 -7.8494685888290405e-01</leafValues></_>
    <_>
      <internalNodes>
        0 -1 125518 1.2297760695219040e-02</internalNodes>
      <leafValues>
        4.5722875744104385e-02 -4.1209912300109863e-01</leafValues></_>
    <_>
      <internalNodes>
        0 -1 7157 1.4754293952137232e-03</internalNodes>
      <leafValues>
        -1.0947593301534653e-01 2.0388834178447723e-01</leafValues></_>
    <_>
      <internalNodes>
        0 -1 95778 1.3183005154132843e-02</internalNodes>
      <leafValues>
        -8.3917163312435150e-02 2.6388064026832581e-01</leafValues></_>
    <_>
      <internalNodes>
        0 -1 151665 2.9838395118713379e-01</internalNodes>
      <leafValues>
        -5.7383481413125992e-02 4.0276977419853210e-01</leafValues></_>
    <_>
      <internalNodes>
        0 -1 141095 8.7467423873022199e-04</internalNodes>
      <leafValues>
        -1.1876650899648666e-01 1.8263864517211914e-01</leafValues></_>
    <_>
      <internalNodes>
        0 -1 141445 9.3702562153339386e-03</internalNodes>
      <leafValues>
        3.2052114605903625e-02 -6.4928340911865234e-01</leafValues></_>
    <_>
      <internalNodes>
        0 -1 148431 -1.5351641923189163e-03</internalNodes>
      <leafValues>
        2.3831501603126526e-01 -9.3348830938339233e-02</leafValues></_>
    <_>
      <internalNodes>
        0 -1 36387 -2.2740781307220459e-02</internalNodes>
      <leafValues>
        -6.5316355228424072e-01 3.4984670579433441e-02</leafValues></_>
    <_>
      <internalNodes>
        0 -1 24212 2.4768608273006976e-04</internalNodes>
      <leafValues>
        -1.0822115093469620e-01 2.0107391476631165e-01</leafValues></_>
    <_>
      <internalNodes>
        0 -1 89709 -2.0829178392887115e-03</internalNodes>
      <leafValues>
        -4.8323982954025269e-01 4.6056102961301804e-02</leafValues></_>
    <_>
      <internalNodes>
        0 -1 168863 -5.7490728795528412e-04</internalNodes>
      <leafValues>
        1.9476796686649323e-01 -1.0573536157608032e-01</leafValues></_>
    <_>
      <internalNodes>
        0 -1 148315 -2.1293845027685165e-02</internalNodes>
      <leafValues>
        -6.7783498764038086e-01 3.4916695207357407e-02</leafValues></_>
    <_>
      <internalNodes>
        0 -1 155245 -6.4140297472476959e-03</internalNodes>
      <leafValues>
        3.7522590160369873e-01 -6.4257770776748657e-02</leafValues></_>
    <_>
      <internalNodes>
        0 -1 12247 -1.1866917833685875e-02</internalNodes>
      <leafValues>
        -5.3696888685226440e-01 4.4398471713066101e-02</leafValues></_>
    <_>
      <internalNodes>
        0 -1 8639 -3.0883994698524475e-01</internalNodes>
      <leafValues>
        -7.7295213937759399e-01 2.0998580381274223e-02</leafValues></_>
    <_>
      <internalNodes>
        0 -1 174886 -4.4396438170224428e-04</internalNodes>
      <leafValues>
        2.6476585865020752e-01 -8.2471378147602081e-02</leafValues></_>
    <_>
      <internalNodes>
        0 -1 174886 2.4544136249460280e-04</internalNodes>
      <leafValues>
        -9.3199647963047028e-02 2.2510270774364471e-01</leafValues></_>
    <_>
      <internalNodes>
        0 -1 136753 -1.5769153833389282e-03</internalNodes>
      <leafValues>
        -6.5364140272140503e-01 3.4397453069686890e-02</leafValues></_>
    <_>
      <internalNodes>
        0 -1 95271 1.1402285099029541e-01</internalNodes>
      <leafValues>
        -4.3944712728261948e-02 5.6329315900802612e-01</leafValues></_>
    <_>
      <internalNodes>
        0 -1 171446 9.1929268091917038e-04</internalNodes>
      <leafValues>
        9.1748714447021484e-02 -2.9404571652412415e-01</leafValues></_>
    <_>
      <internalNodes>
        0 -1 193373 4.2834192514419556e-02</internalNodes>
      <leafValues>
        3.3188939094543457e-02 -6.4728784561157227e-01</leafValues></_>
    <_>
      <internalNodes>
        0 -1 86186 1.0913703590631485e-03</internalNodes>
      <leafValues>
        -2.9471570253372192e-01 6.7700430750846863e-02</leafValues></_>
    <_>
      <internalNodes>
        0 -1 177037 9.8927006125450134e-02</internalNodes>
      <leafValues>
        -3.2943867146968842e-02 7.9944944381713867e-01</leafValues></_>
    <_>
      <internalNodes>
        0 -1 56501 -2.9703646432608366e-03</internalNodes>
      <leafValues>
        1.3515286147594452e-01 -1.7289197444915771e-01</leafValues></_>
    <_>
      <internalNodes>
        0 -1 166303 1.0429428890347481e-02</internalNodes>
      <leafValues>
        8.3860322833061218e-02 -2.6092064380645752e-01</leafValues></_>
    <_>
      <internalNodes>
        0 -1 111340 2.4714597966521978e-03</internalNodes>
      <leafValues>
        -1.8652702867984772e-01 1.3239996135234833e-01</leafValues></_>
    <_>
      <internalNodes>
        0 -1 81289 -1.6617257148027420e-02</internalNodes>
      <leafValues>
        2.7604818344116211e-01 -9.4302743673324585e-02</leafValues></_>
    <_>
      <internalNodes>
        0 -1 143360 -5.3493212908506393e-03</internalNodes>
      <leafValues>
        -6.1979311704635620e-01 3.9358440786600113e-02</leafValues></_>
    <_>
      <internalNodes>
        0 -1 81125 2.3622051230631769e-04</internalNodes>
      <leafValues>
        -1.0578381270170212e-01 2.2356665134429932e-01</leafValues></_>
    <_>
      <internalNodes>
        0 -1 6512 -7.0548048242926598e-03</internalNodes>
      <leafValues>
        -6.3459348678588867e-01 3.7797365337610245e-02</leafValues></_>
    <_>
      <internalNodes>
        0 -1 123161 -3.0319698154926300e-02</internalNodes>
      <leafValues>
        -9.3278032541275024e-01 2.0328082144260406e-02</leafValues></_>
    <_>
      <internalNodes>
        0 -1 124469 -5.4184172302484512e-02</internalNodes>
      <leafValues>
        7.3600429296493530e-01 -3.7141457200050354e-02</leafValues></_>
    <_>
      <internalNodes>
        0 -1 108647 -4.7929350286722183e-02</internalNodes>
      <leafValues>
        7.5660133361816406e-01 -2.1653519943356514e-02</leafValues></_></weakClassifiers></stage15>
</opencv_storage>
