<?xml version="1.0"?>
<opencv_storage>
<stage18>
  <maxWeakCount>82</maxWeakCount>
  <stageThreshold>-1.5151255130767822e+00</stageThreshold>
  <weakClassifiers>
    <_>
      <internalNodes>
        0 -1 184755 2.5196868181228638e-01</internalNodes>
      <leafValues>
        -3.5718905925750732e-01 2.7342745661735535e-01</leafValues></_>
    <_>
      <internalNodes>
        0 -1 44000 -5.1716156303882599e-03</internalNodes>
      <leafValues>
        3.9780372381210327e-01 -1.4827013015747070e-01</leafValues></_>
    <_>
      <internalNodes>
        0 -1 183236 -2.7077738195657730e-03</internalNodes>
      <leafValues>
        3.3981981873512268e-01 -1.3177154958248138e-01</leafValues></_>
    <_>
      <internalNodes>
        0 -1 145432 -9.8574116826057434e-02</internalNodes>
      <leafValues>
        4.4547408819198608e-01 -1.1847495287656784e-01</leafValues></_>
    <_>
      <internalNodes>
        0 -1 76865 7.5249344808980823e-04</internalNodes>
      <leafValues>
        -2.6119470596313477e-01 1.4483861625194550e-01</leafValues></_>
    <_>
      <internalNodes>
        0 -1 75377 8.1105623394250870e-03</internalNodes>
      <leafValues>
        -2.3919156193733215e-01 1.2490627914667130e-01</leafValues></_>
    <_>
      <internalNodes>
        0 -1 106921 1.9010409712791443e-02</internalNodes>
      <leafValues>
        7.8822277486324310e-02 -4.6525719761848450e-01</leafValues></_>
    <_>
      <internalNodes>
        0 -1 179408 8.6533644935116172e-04</internalNodes>
      <leafValues>
        -1.5178114175796509e-01 2.3362417519092560e-01</leafValues></_>
    <_>
      <internalNodes>
        0 -1 150643 3.2160288537852466e-04</internalNodes>
      <leafValues>
        -3.6828094720840454e-01 7.2842635214328766e-02</leafValues></_>
    <_>
      <internalNodes>
        0 -1 174723 6.9916725624352694e-04</internalNodes>
      <leafValues>
        -1.1740846931934357e-01 2.4443636834621429e-01</leafValues></_>
    <_>
      <internalNodes>
        0 -1 178599 8.5812360048294067e-03</internalNodes>
      <leafValues>
        -4.1993893682956696e-02 3.8037505745887756e-01</leafValues></_>
    <_>
      <internalNodes>
        0 -1 182986 -1.2945109978318214e-02</internalNodes>
      <leafValues>
        3.2369664311408997e-01 -1.0023525357246399e-01</leafValues></_>
    <_>
      <internalNodes>
        0 -1 91677 3.9156218990683556e-03</internalNodes>
      <leafValues>
        -7.1962870657444000e-02 2.7956324815750122e-01</leafValues></_>
    <_>
      <internalNodes>
        0 -1 88279 -3.6610224843025208e-01</internalNodes>
      <leafValues>
        2.8166854381561279e-01 -8.6309045553207397e-02</leafValues></_>
    <_>
      <internalNodes>
        0 -1 92669 -4.7675997484475374e-04</internalNodes>
      <leafValues>
        2.4557192623615265e-01 -1.0291679948568344e-01</leafValues></_>
    <_>
      <internalNodes>
        0 -1 35 -1.9072726368904114e-02</internalNodes>
      <leafValues>
        -6.7840820550918579e-01 2.1926390007138252e-02</leafValues></_>
    <_>
      <internalNodes>
        0 -1 12253 -3.2252512755803764e-04</internalNodes>
      <leafValues>
        2.3651111125946045e-01 -8.3520010113716125e-02</leafValues></_>
    <_>
      <internalNodes>
        0 -1 12253 2.6546081062406301e-04</internalNodes>
      <leafValues>
        -1.1665986478328705e-01 2.6737630367279053e-01</leafValues></_>
    <_>
      <internalNodes>
        0 -1 163740 -6.0589604079723358e-02</internalNodes>
      <leafValues>
        -9.7145092487335205e-01 2.1535808220505714e-02</leafValues></_>
    <_>
      <internalNodes>
        0 -1 92136 6.2276151031255722e-02</internalNodes>
      <leafValues>
        1.2973219156265259e-02 -9.3316835165023804e-01</leafValues></_>
    <_>
      <internalNodes>
        0 -1 81975 9.6984840929508209e-03</internalNodes>
      <leafValues>
        3.2203983515501022e-02 -4.8467063903808594e-01</leafValues></_>
    <_>
      <internalNodes>
        0 -1 48669 -3.4689202904701233e-02</internalNodes>
      <leafValues>
        3.6117288470268250e-01 -5.7132180780172348e-02</leafValues></_>
    <_>
      <internalNodes>
        0 -1 85240 3.3627948723733425e-03</internalNodes>
      <leafValues>
        -1.7053215205669403e-01 1.2523187696933746e-01</leafValues></_>
    <_>
      <internalNodes>
        0 -1 122918 1.8892956897616386e-02</internalNodes>
      <leafValues>
        2.5615524500608444e-02 -8.0406939983367920e-01</leafValues></_>
    <_>
      <internalNodes>
        0 -1 140429 3.2921439409255981e-01</internalNodes>
      <leafValues>
        -4.2800981551408768e-02 4.9937114119529724e-01</leafValues></_>
    <_>
      <internalNodes>
        0 -1 140042 -5.0001987256109715e-04</internalNodes>
      <leafValues>
        2.3437348008155823e-01 -7.9472884535789490e-02</leafValues></_>
    <_>
      <internalNodes>
        0 -1 140042 2.8945156373083591e-04</internalNodes>
      <leafValues>
        -1.0662678629159927e-01 2.0013023912906647e-01</leafValues></_>
    <_>
      <internalNodes>
        0 -1 158484 2.1777581423521042e-02</internalNodes>
      <leafValues>
        4.9469195306301117e-02 -4.5726138353347778e-01</leafValues></_>
    <_>
      <internalNodes>
        0 -1 13171 9.0211052447557449e-03</internalNodes>
      <leafValues>
        2.6370875537395477e-02 -6.2105953693389893e-01</leafValues></_>
    <_>
      <internalNodes>
        0 -1 25368 4.1370713710784912e-01</internalNodes>
      <leafValues>
        3.3645890653133392e-02 -5.1844227313995361e-01</leafValues></_>
    <_>
      <internalNodes>
        0 -1 82801 -4.9681225791573524e-03</internalNodes>
      <leafValues>
        -4.2837825417518616e-01 4.2473629117012024e-02</leafValues></_>
    <_>
      <internalNodes>
        0 -1 67195 1.2043104507029057e-03</internalNodes>
      <leafValues>
        -5.4693896323442459e-02 3.6596754193305969e-01</leafValues></_>
    <_>
      <internalNodes>
        0 -1 109895 -3.6874391138553619e-02</internalNodes>
      <leafValues>
        -7.7152675390243530e-01 3.2999750226736069e-02</leafValues></_>
    <_>
      <internalNodes>
        0 -1 65320 6.8360328674316406e-02</internalNodes>
      <leafValues>
        -4.9620296806097031e-02 5.0602269172668457e-01</leafValues></_>
    <_>
      <internalNodes>
        0 -1 181532 -1.6216576099395752e-02</internalNodes>
      <leafValues>
        2.7518355846405029e-01 -7.1784026920795441e-02</leafValues></_>
    <_>
      <internalNodes>
        0 -1 135566 -4.2182398028671741e-03</internalNodes>
      <leafValues>
        -5.2140653133392334e-01 3.6477807909250259e-02</leafValues></_>
    <_>
      <internalNodes>
        0 -1 162597 8.4678432904183865e-04</internalNodes>
      <leafValues>
        -9.7279474139213562e-02 2.0965026319026947e-01</leafValues></_>
    <_>
      <internalNodes>
        0 -1 182898 1.8185541033744812e-02</internalNodes>
      <leafValues>
        3.3611308783292770e-02 -5.8364605903625488e-01</leafValues></_>
    <_>
      <internalNodes>
        0 -1 182358 1.6356720589101315e-03</internalNodes>
      <leafValues>
        -6.3203826546669006e-02 3.2246401906013489e-01</leafValues></_>
    <_>
      <internalNodes>
        0 -1 7453 5.7329840958118439e-02</internalNodes>
      <leafValues>
        -2.0700776576995850e-01 9.4683244824409485e-02</leafValues></_>
    <_>
      <internalNodes>
        0 -1 126107 -1.3181583955883980e-02</internalNodes>
      <leafValues>
        7.4986904859542847e-01 -3.0377097427845001e-02</leafValues></_>
    <_>
      <internalNodes>
        0 -1 135629 -1.4520630065817386e-04</internalNodes>
      <leafValues>
        2.9734149575233459e-01 -5.4704599082469940e-02</leafValues></_>
    <_>
      <internalNodes>
        0 -1 171290 -2.0304083824157715e-02</internalNodes>
      <leafValues>
        3.3608737587928772e-01 -6.1465617269277573e-02</leafValues></_>
    <_>
      <internalNodes>
        0 -1 139490 1.1711776256561279e-02</internalNodes>
      <leafValues>
        4.3319262564182281e-02 -4.1860583424568176e-01</leafValues></_>
    <_>
      <internalNodes>
        0 -1 130942 -4.1913534514605999e-03</internalNodes>
      <leafValues>
        1.5965473651885986e-01 -1.3723798096179962e-01</leafValues></_>
    <_>
      <internalNodes>
        0 -1 593 -3.7008076906204224e-02</internalNodes>
      <leafValues>
        -7.4480670690536499e-01 2.4222001433372498e-02</leafValues></_>
    <_>
      <internalNodes>
        0 -1 194405 1.3445199467241764e-02</internalNodes>
      <leafValues>
        2.6375519111752510e-02 -6.4027416706085205e-01</leafValues></_>
    <_>
      <internalNodes>
        0 -1 185077 1.7818993330001831e-01</internalNodes>
      <leafValues>
        -4.8415429890155792e-02 4.3277680873870850e-01</leafValues></_>
    <_>
      <internalNodes>
        0 -1 122426 3.2646895851939917e-04</internalNodes>
      <leafValues>
        -8.1805214285850525e-02 2.1483558416366577e-01</leafValues></_>
    <_>
      <internalNodes>
        0 -1 55677 -3.1440085172653198e-01</internalNodes>
      <leafValues>
        -8.9154595136642456e-01 2.0535523071885109e-02</leafValues></_>
    <_>
      <internalNodes>
        0 -1 21867 -1.1818414786830544e-03</internalNodes>
      <leafValues>
        1.0263735800981522e-01 -1.7116969823837280e-01</leafValues></_>
    <_>
      <internalNodes>
        0 -1 98943 -8.0367978662252426e-03</internalNodes>
      <leafValues>
        -8.1240868568420410e-01 1.9342157989740372e-02</leafValues></_>
    <_>
      <internalNodes>
        0 -1 112965 -2.8984155505895615e-04</internalNodes>
      <leafValues>
        1.6939797997474670e-01 -1.0622146725654602e-01</leafValues></_>
    <_>
      <internalNodes>
        0 -1 123152 1.1414663866162300e-02</internalNodes>
      <leafValues>
        3.8589116185903549e-02 -5.1576465368270874e-01</leafValues></_>
    <_>
      <internalNodes>
        0 -1 71123 2.3668224457651377e-04</internalNodes>
      <leafValues>
        -1.0494216531515121e-01 1.6440278291702271e-01</leafValues></_>
    <_>
      <internalNodes>
        0 -1 71119 -1.0951294098049402e-04</internalNodes>
      <leafValues>
        1.5409491956233978e-01 -1.1731289327144623e-01</leafValues></_>
    <_>
      <internalNodes>
        0 -1 27802 1.1084700003266335e-02</internalNodes>
      <leafValues>
        -4.9103111028671265e-01 3.9119925349950790e-02</leafValues></_>
    <_>
      <internalNodes>
        0 -1 37518 -1.2577271461486816e-01</internalNodes>
      <leafValues>
        4.9624809622764587e-01 -4.2254511266946793e-02</leafValues></_>
    <_>
      <internalNodes>
        0 -1 166524 -3.2222000882029533e-03</internalNodes>
      <leafValues>
        -1.4114677906036377e-01 1.3592156767845154e-01</leafValues></_>
    <_>
      <internalNodes>
        0 -1 170926 1.1807614006102085e-02</internalNodes>
      <leafValues>
        7.4225306510925293e-02 -2.6674690842628479e-01</leafValues></_>
    <_>
      <internalNodes>
        0 -1 122800 -4.7269426286220551e-03</internalNodes>
      <leafValues>
        7.9169705510139465e-02 -2.2282356023788452e-01</leafValues></_>
    <_>
      <internalNodes>
        0 -1 185535 -7.1735791862010956e-03</internalNodes>
      <leafValues>
        -3.1639820337295532e-01 6.5847419202327728e-02</leafValues></_>
    <_>
      <internalNodes>
        0 -1 194384 -2.3777721798978746e-04</internalNodes>
      <leafValues>
        1.7958535254001617e-01 -9.9179401993751526e-02</leafValues></_>
    <_>
      <internalNodes>
        0 -1 194024 2.0469855517148972e-02</internalNodes>
      <leafValues>
        2.4877822026610374e-02 -6.8390852212905884e-01</leafValues></_>
    <_>
      <internalNodes>
        0 -1 166290 1.2413556396495551e-04</internalNodes>
      <leafValues>
        -1.8909072875976562e-01 8.7513856589794159e-02</leafValues></_>
    <_>
      <internalNodes>
        0 -1 20447 5.8955997228622437e-03</internalNodes>
      <leafValues>
        3.3603008836507797e-02 -5.0623840093612671e-01</leafValues></_>
    <_>
      <internalNodes>
        0 -1 186711 -1.4065038412809372e-02</internalNodes>
      <leafValues>
        4.2734318971633911e-01 -4.6375956386327744e-02</leafValues></_>
    <_>
      <internalNodes>
        0 -1 58546 -3.1286603771150112e-03</internalNodes>
      <leafValues>
        2.0988462865352631e-01 -8.1311613321304321e-02</leafValues></_>
    <_>
      <internalNodes>
        0 -1 176850 -3.1548514962196350e-02</internalNodes>
      <leafValues>
        1.5910771489143372e-01 -1.1690963059663773e-01</leafValues></_>
    <_>
      <internalNodes>
        0 -1 11970 -3.3287752419710159e-02</internalNodes>
      <leafValues>
        -5.6820124387741089e-01 3.4667659550905228e-02</leafValues></_>
    <_>
      <internalNodes>
        0 -1 122034 3.1788047635927796e-04</internalNodes>
      <leafValues>
        -1.1155269294977188e-01 1.7421159148216248e-01</leafValues></_>
    <_>
      <internalNodes>
        0 -1 102474 1.1687777005136013e-02</internalNodes>
      <leafValues>
        6.4517877995967865e-02 -2.8649631142616272e-01</leafValues></_>
    <_>
      <internalNodes>
        0 -1 149076 1.0362034663558006e-02</internalNodes>
      <leafValues>
        3.0578033998608589e-02 -5.2764719724655151e-01</leafValues></_>
    <_>
      <internalNodes>
        0 -1 50466 -2.4981850758194923e-02</internalNodes>
      <leafValues>
        2.1211037039756775e-01 -8.3836369216442108e-02</leafValues></_>
    <_>
      <internalNodes>
        0 -1 61876 3.6137062311172485e-01</internalNodes>
      <leafValues>
        -3.4671742469072342e-02 4.9834349751472473e-01</leafValues></_>
    <_>
      <internalNodes>
        0 -1 156408 -3.1722837593406439e-04</internalNodes>
      <leafValues>
        2.1575108170509338e-01 -8.5793338716030121e-02</leafValues></_>
    <_>
      <internalNodes>
        0 -1 167577 5.9063073247671127e-02</internalNodes>
      <leafValues>
        -3.8251742720603943e-02 4.2208093404769897e-01</leafValues></_>
    <_>
      <internalNodes>
        0 -1 110469 3.3474236726760864e-02</internalNodes>
      <leafValues>
        5.9004586189985275e-02 -2.9559865593910217e-01</leafValues></_>
    <_>
      <internalNodes>
        0 -1 82549 -4.3352589011192322e-02</internalNodes>
      <leafValues>
        3.8563841581344604e-01 -4.9786325544118881e-02</leafValues></_>
    <_>
      <internalNodes>
        0 -1 169316 -2.0482536405324936e-02</internalNodes>
      <leafValues>
        -7.9708284139633179e-01 2.5593560189008713e-02</leafValues></_>
    <_>
      <internalNodes>
        0 -1 152489 -1.1244375258684158e-02</internalNodes>
      <leafValues>
        -6.6274189949035645e-01 2.0983543246984482e-02</leafValues></_>
    <_>
      <internalNodes>
        0 -1 150321 2.4942651391029358e-01</internalNodes>
      <leafValues>
        -2.7327533811330795e-02 7.2437202930450439e-01</leafValues></_></weakClassifiers></stage18>
</opencv_storage>
