<?xml version="1.0"?>
<opencv_storage>
<stage5>
  <maxWeakCount>7</maxWeakCount>
  <stageThreshold>-2.4632494449615479e+00</stageThreshold>
  <weakClassifiers>
    <_>
      <internalNodes>
        0 -1 3926 3.0368301272392273e-01</internalNodes>
      <leafValues>
        -8.5753852128982544e-01 5.4429030418395996e-01</leafValues></_>
    <_>
      <internalNodes>
        0 -1 106021 -6.3488975167274475e-02</internalNodes>
      <leafValues>
        2.2651398181915283e-01 -8.5071223974227905e-01</leafValues></_>
    <_>
      <internalNodes>
        0 -1 105643 4.4037893414497375e-02</internalNodes>
      <leafValues>
        -7.1273344755172729e-01 3.0177804827690125e-01</leafValues></_>
    <_>
      <internalNodes>
        0 -1 51632 -2.7291840314865112e-01</internalNodes>
      <leafValues>
        2.2947184741497040e-01 -6.6235911846160889e-01</leafValues></_>
    <_>
      <internalNodes>
        0 -1 55922 -1.2474643066525459e-02</internalNodes>
      <leafValues>
        -8.7164098024368286e-01 2.0648162066936493e-01</leafValues></_>
    <_>
      <internalNodes>
        0 -1 9434 -2.2568118292838335e-03</internalNodes>
      <leafValues>
        2.2581747174263000e-01 -7.8366225957870483e-01</leafValues></_>
    <_>
      <internalNodes>
        0 -1 959 -1.8804956227540970e-02</internalNodes>
      <leafValues>
        1.8869113922119141e-01 -8.3263790607452393e-01</leafValues></_></weakClassifiers></stage5>
</opencv_storage>
