<?xml version="1.0"?>
<opencv_storage>
<stage16>
  <maxWeakCount>95</maxWeakCount>
  <stageThreshold>-1.7164375782012939e+00</stageThreshold>
  <weakClassifiers>
    <_>
      <internalNodes>
        0 -1 15594 4.5869514346122742e-01</internalNodes>
      <leafValues>
        -5.6293964385986328e-01 2.6911619305610657e-01</leafValues></_>
    <_>
      <internalNodes>
        0 -1 223933 -1.5578291378915310e-02</internalNodes>
      <leafValues>
        1.9095037877559662e-01 -2.6836752891540527e-01</leafValues></_>
    <_>
      <internalNodes>
        0 -1 268012 -1.3144135009497404e-03</internalNodes>
      <leafValues>
        3.3232775330543518e-01 -6.5486527979373932e-02</leafValues></_>
    <_>
      <internalNodes>
        0 -1 23754 4.1347732767462730e-03</internalNodes>
      <leafValues>
        -3.0542141199111938e-01 6.5899163484573364e-02</leafValues></_>
    <_>
      <internalNodes>
        0 -1 181303 -4.6640064567327499e-02</internalNodes>
      <leafValues>
        2.3637187480926514e-01 -9.1228544712066650e-02</leafValues></_>
    <_>
      <internalNodes>
        0 -1 174572 9.3137950898380950e-06</internalNodes>
      <leafValues>
        1.1649473756551743e-01 -1.7515227198600769e-01</leafValues></_>
    <_>
      <internalNodes>
        0 -1 205725 9.6541843959130347e-06</internalNodes>
      <leafValues>
        6.4917162060737610e-02 -2.8028145432472229e-01</leafValues></_>
    <_>
      <internalNodes>
        0 -1 205725 -9.2825794126838446e-06</internalNodes>
      <leafValues>
        -9.8838597536087036e-02 2.1938529610633850e-01</leafValues></_>
    <_>
      <internalNodes>
        0 -1 214927 1.2026982754468918e-01</internalNodes>
      <leafValues>
        -1.5557655692100525e-01 1.6299638152122498e-01</leafValues></_>
    <_>
      <internalNodes>
        0 -1 91947 -2.4022331833839417e-01</internalNodes>
      <leafValues>
        4.5716011524200439e-01 -3.7494774907827377e-02</leafValues></_>
    <_>
      <internalNodes>
        0 -1 152686 2.9913330078125000e-01</internalNodes>
      <leafValues>
        -6.2524691224098206e-02 5.0115901231765747e-01</leafValues></_>
    <_>
      <internalNodes>
        0 -1 109668 6.4245071262121201e-03</internalNodes>
      <leafValues>
        -1.4171491563320160e-01 1.7406223714351654e-01</leafValues></_>
    <_>
      <internalNodes>
        0 -1 171904 5.5610416893614456e-05</internalNodes>
      <leafValues>
        1.4107605814933777e-01 -1.3716585934162140e-01</leafValues></_>
    <_>
      <internalNodes>
        0 -1 84516 -3.6111786030232906e-03</internalNodes>
      <leafValues>
        1.6790764033794403e-01 -1.4720697700977325e-01</leafValues></_>
    <_>
      <internalNodes>
        0 -1 140823 4.7025352716445923e-02</internalNodes>
      <leafValues>
        3.9802644401788712e-02 -4.5239621400833130e-01</leafValues></_>
    <_>
      <internalNodes>
        0 -1 140487 -1.1485408991575241e-02</internalNodes>
      <leafValues>
        4.4892260432243347e-01 -4.2730171233415604e-02</leafValues></_>
    <_>
      <internalNodes>
        0 -1 267 -7.2709219530224800e-03</internalNodes>
      <leafValues>
        -4.3038904666900635e-01 3.9446968585252762e-02</leafValues></_>
    <_>
      <internalNodes>
        0 -1 36781 -2.7203986974200234e-05</internalNodes>
      <leafValues>
        1.7961259186267853e-01 -1.0628559440374374e-01</leafValues></_>
    <_>
      <internalNodes>
        0 -1 261019 -1.6291892388835549e-03</internalNodes>
      <leafValues>
        3.4408509731292725e-01 -4.9514114856719971e-02</leafValues></_>
    <_>
      <internalNodes>
        0 -1 260585 5.4483357816934586e-03</internalNodes>
      <leafValues>
        -5.3157288581132889e-02 3.8330447673797607e-01</leafValues></_>
    <_>
      <internalNodes>
        0 -1 219158 -4.2990341782569885e-02</internalNodes>
      <leafValues>
        3.4328889846801758e-01 -5.6619487702846527e-02</leafValues></_>
    <_>
      <internalNodes>
        0 -1 45922 3.4500500559806824e-01</internalNodes>
      <leafValues>
        -4.8183210194110870e-02 3.6961597204208374e-01</leafValues></_>
    <_>
      <internalNodes>
        0 -1 264889 -3.8258184213191271e-04</internalNodes>
      <leafValues>
        2.2022594511508942e-01 -7.6663091778755188e-02</leafValues></_>
    <_>
      <internalNodes>
        0 -1 62925 -4.3373317457735538e-03</internalNodes>
      <leafValues>
        -3.3726772665977478e-01 4.6483237296342850e-02</leafValues></_>
    <_>
      <internalNodes>
        0 -1 259986 1.0855516418814659e-02</internalNodes>
      <leafValues>
        -1.6616652905941010e-01 1.0340549051761627e-01</leafValues></_>
    <_>
      <internalNodes>
        0 -1 99755 -1.3038691133260727e-02</internalNodes>
      <leafValues>
        2.3703984916210175e-01 -8.7598100304603577e-02</leafValues></_>
    <_>
      <internalNodes>
        0 -1 174565 -4.1698065615491942e-05</internalNodes>
      <leafValues>
        -1.8398222327232361e-01 1.0005329549312592e-01</leafValues></_>
    <_>
      <internalNodes>
        0 -1 175154 -9.0235751122236252e-03</internalNodes>
      <leafValues>
        5.9889566898345947e-01 -3.5099871456623077e-02</leafValues></_>
    <_>
      <internalNodes>
        0 -1 276281 -1.9051788840442896e-03</internalNodes>
      <leafValues>
        -1.9400300085544586e-01 8.9850060641765594e-02</leafValues></_>
    <_>
      <internalNodes>
        0 -1 273621 8.0726854503154755e-03</internalNodes>
      <leafValues>
        7.9550482332706451e-02 -2.4131520092487335e-01</leafValues></_>
    <_>
      <internalNodes>
        0 -1 264889 7.3611701373010874e-04</internalNodes>
      <leafValues>
        -6.3585095107555389e-02 2.9790937900543213e-01</leafValues></_>
    <_>
      <internalNodes>
        0 -1 143362 1.5252243727445602e-02</internalNodes>
      <leafValues>
        -3.9916802197694778e-02 4.0557786822319031e-01</leafValues></_>
    <_>
      <internalNodes>
        0 -1 249106 -7.2499141097068787e-02</internalNodes>
      <leafValues>
        1.4537093043327332e-01 -1.0925465822219849e-01</leafValues></_>
    <_>
      <internalNodes>
        0 -1 230327 5.9453308494994417e-05</internalNodes>
      <leafValues>
        1.1003728955984116e-01 -1.8474462628364563e-01</leafValues></_>
    <_>
      <internalNodes>
        0 -1 202753 6.3919955864548683e-03</internalNodes>
      <leafValues>
        -1.9075769186019897e-01 1.0491862148046494e-01</leafValues></_>
    <_>
      <internalNodes>
        0 -1 52301 -1.8050115322694182e-03</internalNodes>
      <leafValues>
        3.0130380392074585e-01 -5.9230826795101166e-02</leafValues></_>
    <_>
      <internalNodes>
        0 -1 199463 -2.0868650171905756e-03</internalNodes>
      <leafValues>
        -8.9435197412967682e-02 1.8240731954574585e-01</leafValues></_>
    <_>
      <internalNodes>
        0 -1 14375 -1.8016153480857611e-03</internalNodes>
      <leafValues>
        -2.1181674301624298e-01 8.4007501602172852e-02</leafValues></_>
    <_>
      <internalNodes>
        0 -1 29627 -3.2371491193771362e-01</internalNodes>
      <leafValues>
        6.3708859682083130e-01 -3.0486736446619034e-02</leafValues></_>
    <_>
      <internalNodes>
        0 -1 32403 3.3291119337081909e-01</internalNodes>
      <leafValues>
        -6.4734645187854767e-02 2.4734584987163544e-01</leafValues></_>
    <_>
      <internalNodes>
        0 -1 153105 -1.5571264550089836e-02</internalNodes>
      <leafValues>
        -6.5782266855239868e-01 2.7109533548355103e-02</leafValues></_>
    <_>
      <internalNodes>
        0 -1 97654 7.5220717117190361e-03</internalNodes>
      <leafValues>
        -1.1064735054969788e-01 1.6870865225791931e-01</leafValues></_>
    <_>
      <internalNodes>
        0 -1 240504 4.5572309318231419e-05</internalNodes>
      <leafValues>
        1.4457675814628601e-01 -1.2423258274793625e-01</leafValues></_>
    <_>
      <internalNodes>
        0 -1 201274 -3.4630954265594482e-02</internalNodes>
      <leafValues>
        2.0105531811714172e-01 -1.2413407117128372e-01</leafValues></_>
    <_>
      <internalNodes>
        0 -1 164722 -1.4285262674093246e-02</internalNodes>
      <leafValues>
        9.6255809068679810e-02 -2.1429638564586639e-01</leafValues></_>
    <_>
      <internalNodes>
        0 -1 161829 -8.9026056230068207e-04</internalNodes>
      <leafValues>
        -9.6312500536441803e-02 1.8522308766841888e-01</leafValues></_>
    <_>
      <internalNodes>
        0 -1 69740 4.4110855460166931e-01</internalNodes>
      <leafValues>
        2.7222650125622749e-02 -6.3429588079452515e-01</leafValues></_>
    <_>
      <internalNodes>
        0 -1 4454 -4.3380204588174820e-03</internalNodes>
      <leafValues>
        -1.9898232817649841e-01 7.9358264803886414e-02</leafValues></_>
    <_>
      <internalNodes>
        0 -1 240954 -3.9009326428640634e-05</internalNodes>
      <leafValues>
        -1.8217144906520844e-01 9.3467369675636292e-02</leafValues></_>
    <_>
      <internalNodes>
        0 -1 92080 2.9904252290725708e-01</internalNodes>
      <leafValues>
        -3.6925178021192551e-02 5.9025305509567261e-01</leafValues></_>
    <_>
      <internalNodes>
        0 -1 158092 -9.6099865913856775e-06</internalNodes>
      <leafValues>
        -1.6491664946079254e-01 9.9606059491634369e-02</leafValues></_>
    <_>
      <internalNodes>
        0 -1 275960 2.1798486704938114e-04</internalNodes>
      <leafValues>
        -7.2277761995792389e-02 2.3369780182838440e-01</leafValues></_>
    <_>
      <internalNodes>
        0 -1 275960 -1.5665541286580265e-04</internalNodes>
      <leafValues>
        2.3525620996952057e-01 -7.4854411184787750e-02</leafValues></_>
    <_>
      <internalNodes>
        0 -1 3431 9.5617421902716160e-04</internalNodes>
      <leafValues>
        1.0602766275405884e-01 -1.8330326676368713e-01</leafValues></_>
    <_>
      <internalNodes>
        0 -1 177762 2.1280966699123383e-02</internalNodes>
      <leafValues>
        1.8869191408157349e-02 -7.6953893899917603e-01</leafValues></_>
    <_>
      <internalNodes>
        0 -1 191309 2.0450432784855366e-03</internalNodes>
      <leafValues>
        -1.5228234231472015e-01 1.1833714693784714e-01</leafValues></_>
    <_>
      <internalNodes>
        0 -1 107858 -9.9680200219154358e-02</internalNodes>
      <leafValues>
        4.3789914250373840e-01 -3.9515953510999680e-02</leafValues></_>
    <_>
      <internalNodes>
        0 -1 156911 -2.2050098050385714e-04</internalNodes>
      <leafValues>
        2.8116691112518311e-01 -5.5418543517589569e-02</leafValues></_>
    <_>
      <internalNodes>
        0 -1 139938 4.5453140046447515e-04</internalNodes>
      <leafValues>
        -1.3236635923385620e-01 1.2370775640010834e-01</leafValues></_>
    <_>
      <internalNodes>
        0 -1 143279 -1.4667618088424206e-03</internalNodes>
      <leafValues>
        -2.4045503139495850e-01 7.2324074804782867e-02</leafValues></_>
    <_>
      <internalNodes>
        0 -1 22380 -1.4230555389076471e-03</internalNodes>
      <leafValues>
        -1.8223974108695984e-01 9.2380367219448090e-02</leafValues></_>
    <_>
      <internalNodes>
        0 -1 21985 2.2058316972106695e-04</internalNodes>
      <leafValues>
        -7.5239978730678558e-02 2.4370381236076355e-01</leafValues></_>
    <_>
      <internalNodes>
        0 -1 125888 2.6266343775205314e-04</internalNodes>
      <leafValues>
        -8.1633284687995911e-02 1.9029991328716278e-01</leafValues></_>
    <_>
      <internalNodes>
        0 -1 232439 2.9866271652281284e-03</internalNodes>
      <leafValues>
        3.8481045514345169e-02 -4.0789058804512024e-01</leafValues></_>
    <_>
      <internalNodes>
        0 -1 6908 1.2825714424252510e-02</internalNodes>
      <leafValues>
        2.0178202539682388e-02 -6.5087741613388062e-01</leafValues></_>
    <_>
      <internalNodes>
        0 -1 12422 1.2455614656209946e-01</internalNodes>
      <leafValues>
        1.5299091115593910e-02 -7.9157674312591553e-01</leafValues></_>
    <_>
      <internalNodes>
        0 -1 124691 -3.2651150831952691e-05</internalNodes>
      <leafValues>
        1.4391313493251801e-01 -1.0789155960083008e-01</leafValues></_>
    <_>
      <internalNodes>
        0 -1 222319 -5.0791325047612190e-03</internalNodes>
      <leafValues>
        -5.9701311588287354e-01 2.6865079998970032e-02</leafValues></_>
    <_>
      <internalNodes>
        0 -1 266891 9.0760085731744766e-03</internalNodes>
      <leafValues>
        -7.4072882533073425e-02 2.1600666642189026e-01</leafValues></_>
    <_>
      <internalNodes>
        0 -1 190300 8.8358201537630521e-06</internalNodes>
      <leafValues>
        7.4472218751907349e-02 -2.1235358715057373e-01</leafValues></_>
    <_>
      <internalNodes>
        0 -1 749 -2.3845010437071323e-03</internalNodes>
      <leafValues>
        -2.2611702978610992e-01 6.9536887109279633e-02</leafValues></_>
    <_>
      <internalNodes>
        0 -1 272650 -2.9450166039168835e-04</internalNodes>
      <leafValues>
        2.5971314311027527e-01 -6.7021898925304413e-02</leafValues></_>
    <_>
      <internalNodes>
        0 -1 42950 3.0325469197123311e-05</internalNodes>
      <leafValues>
        -1.0612645000219345e-01 1.5071427822113037e-01</leafValues></_>
    <_>
      <internalNodes>
        0 -1 22376 9.6144049894064665e-04</internalNodes>
      <leafValues>
        7.3479488492012024e-02 -2.0237436890602112e-01</leafValues></_>
    <_>
      <internalNodes>
        0 -1 232108 -1.1102850548923016e-03</internalNodes>
      <leafValues>
        1.4103636145591736e-01 -1.1723230779170990e-01</leafValues></_>
    <_>
      <internalNodes>
        0 -1 105453 -3.0499703716486692e-03</internalNodes>
      <leafValues>
        -1.5948769450187683e-01 1.1582591384649277e-01</leafValues></_>
    <_>
      <internalNodes>
        0 -1 104065 1.0631555691361427e-02</internalNodes>
      <leafValues>
        -2.7287181466817856e-02 5.9722989797592163e-01</leafValues></_>
    <_>
      <internalNodes>
        0 -1 159823 -7.7926749363541603e-03</internalNodes>
      <leafValues>
        -6.9209307432174683e-01 2.5202356278896332e-02</leafValues></_>
    <_>
      <internalNodes>
        0 -1 229821 -1.1294837109744549e-02</internalNodes>
      <leafValues>
        -8.6910218000411987e-01 1.2509957887232304e-02</leafValues></_>
    <_>
      <internalNodes>
        0 -1 256829 -5.5672065354883671e-04</internalNodes>
      <leafValues>
        2.4872738122940063e-01 -6.3227936625480652e-02</leafValues></_>
    <_>
      <internalNodes>
        0 -1 273560 5.6370869278907776e-03</internalNodes>
      <leafValues>
        3.0744776129722595e-02 -5.2099150419235229e-01</leafValues></_>
    <_>
      <internalNodes>
        0 -1 273433 -1.8054075189866126e-04</internalNodes>
      <leafValues>
        1.8517176806926727e-01 -8.7356418371200562e-02</leafValues></_>
    <_>
      <internalNodes>
        0 -1 277024 -5.3053442388772964e-04</internalNodes>
      <leafValues>
        -2.0993399620056152e-01 8.8206872344017029e-02</leafValues></_>
    <_>
      <internalNodes>
        0 -1 273440 5.0628662575036287e-04</internalNodes>
      <leafValues>
        -6.9325476884841919e-02 2.5829869508743286e-01</leafValues></_>
    <_>
      <internalNodes>
        0 -1 234098 1.4269965467974544e-03</internalNodes>
      <leafValues>
        8.5880704224109650e-02 -2.1466706693172455e-01</leafValues></_>
    <_>
      <internalNodes>
        0 -1 46227 2.4914234876632690e-01</internalNodes>
      <leafValues>
        -6.9149233400821686e-02 2.4985715746879578e-01</leafValues></_>
    <_>
      <internalNodes>
        0 -1 104533 -8.2578608999028802e-04</internalNodes>
      <leafValues>
        1.0984529554843903e-01 -2.1232162415981293e-01</leafValues></_>
    <_>
      <internalNodes>
        0 -1 219564 7.0618629455566406e-02</internalNodes>
      <leafValues>
        1.7075151205062866e-02 -7.8064715862274170e-01</leafValues></_>
    <_>
      <internalNodes>
        0 -1 244913 8.7616819655522704e-05</internalNodes>
      <leafValues>
        -8.9505687355995178e-02 1.6553762555122375e-01</leafValues></_>
    <_>
      <internalNodes>
        0 -1 22839 8.3438074216246605e-04</internalNodes>
      <leafValues>
        8.2838043570518494e-02 -1.7444942891597748e-01</leafValues></_>
    <_>
      <internalNodes>
        0 -1 263300 8.1737264990806580e-03</internalNodes>
      <leafValues>
        -4.1398577392101288e-02 3.8181820511817932e-01</leafValues></_>
    <_>
      <internalNodes>
        0 -1 254610 2.7904272428713739e-05</internalNodes>
      <leafValues>
        -9.9983841180801392e-02 1.4403411746025085e-01</leafValues></_>
    <_>
      <internalNodes>
        0 -1 261611 1.0832022875547409e-02</internalNodes>
      <leafValues>
        -3.6499597132205963e-02 4.1570174694061279e-01</leafValues></_>
    <_>
      <internalNodes>
        0 -1 255036 -8.2177855074405670e-04</internalNodes>
      <leafValues>
        -2.1872623264789581e-01 7.1710459887981415e-02</leafValues></_>
    <_>
      <internalNodes>
        0 -1 9251 -2.4448469048365951e-04</internalNodes>
      <leafValues>
        2.4713769555091858e-01 -5.9355743229389191e-02</leafValues></_></weakClassifiers></stage16>
</opencv_storage>
