<?xml version="1.0"?>
<opencv_storage>
<stage4>
  <maxWeakCount>24</maxWeakCount>
  <stageThreshold>-2.2345259189605713e+00</stageThreshold>
  <weakClassifiers>
    <_>
      <internalNodes>
        0 -1 16373 2.6085126399993896e-01</internalNodes>
      <leafValues>
        -6.9917321205139160e-01 6.8171554803848267e-01</leafValues></_>
    <_>
      <internalNodes>
        0 -1 196674 -1.3467951118946075e-01</internalNodes>
      <leafValues>
        3.6206305027008057e-01 -4.0784075856208801e-01</leafValues></_>
    <_>
      <internalNodes>
        0 -1 85881 2.5266185402870178e-01</internalNodes>
      <leafValues>
        -1.3022455573081970e-01 7.4188518524169922e-01</leafValues></_>
    <_>
      <internalNodes>
        0 -1 276219 9.8312692716717720e-03</internalNodes>
      <leafValues>
        1.6906529664993286e-01 -5.5390280485153198e-01</leafValues></_>
    <_>
      <internalNodes>
        0 -1 1469 3.4461952745914459e-02</internalNodes>
      <leafValues>
        -6.5526902675628662e-01 1.9131550192832947e-01</leafValues></_>
    <_>
      <internalNodes>
        0 -1 170002 4.1649165749549866e-01</internalNodes>
      <leafValues>
        -2.0665526390075684e-01 5.2585768699645996e-01</leafValues></_>
    <_>
      <internalNodes>
        0 -1 4896 1.4924751222133636e-01</internalNodes>
      <leafValues>
        -2.8199842572212219e-01 3.6302047967910767e-01</leafValues></_>
    <_>
      <internalNodes>
        0 -1 46196 1.3708487153053284e-01</internalNodes>
      <leafValues>
        -3.4224671125411987e-01 3.7500619888305664e-01</leafValues></_>
    <_>
      <internalNodes>
        0 -1 44822 7.2836689651012421e-04</internalNodes>
      <leafValues>
        -4.5800212025642395e-01 1.9150370359420776e-01</leafValues></_>
    <_>
      <internalNodes>
        0 -1 41 8.0353710800409317e-03</internalNodes>
      <leafValues>
        8.4215939044952393e-02 -7.6064735651016235e-01</leafValues></_>
    <_>
      <internalNodes>
        0 -1 81265 -1.2607513368129730e-01</internalNodes>
      <leafValues>
        2.2736577689647675e-01 -2.9720944166183472e-01</leafValues></_>
    <_>
      <internalNodes>
        0 -1 213530 -2.0395171642303467e-01</internalNodes>
      <leafValues>
        6.6929030418395996e-01 -1.3151963055133820e-01</leafValues></_>
    <_>
      <internalNodes>
        0 -1 640 -2.5872144848108292e-02</internalNodes>
      <leafValues>
        -6.5485125780105591e-01 1.2022177129983902e-01</leafValues></_>
    <_>
      <internalNodes>
        0 -1 227439 -1.0368709266185760e-01</internalNodes>
      <leafValues>
        3.7568444013595581e-01 -1.5396331250667572e-01</leafValues></_>
    <_>
      <internalNodes>
        0 -1 67049 1.2357884645462036e-01</internalNodes>
      <leafValues>
        -1.2315724790096283e-01 4.6383601427078247e-01</leafValues></_>
    <_>
      <internalNodes>
        0 -1 273621 3.6544714123010635e-02</internalNodes>
      <leafValues>
        8.6191408336162567e-02 -7.6989203691482544e-01</leafValues></_>
    <_>
      <internalNodes>
        0 -1 247424 2.2534310817718506e-02</internalNodes>
      <leafValues>
        -1.5559110045433044e-01 3.8738968968391418e-01</leafValues></_>
    <_>
      <internalNodes>
        0 -1 175297 3.8038142520235851e-05</internalNodes>
      <leafValues>
        1.5256972610950470e-01 -4.2138844728469849e-01</leafValues></_>
    <_>
      <internalNodes>
        0 -1 22270 -1.9029323011636734e-02</internalNodes>
      <leafValues>
        -6.9780093431472778e-01 8.1918999552726746e-02</leafValues></_>
    <_>
      <internalNodes>
        0 -1 220175 3.3988559152930975e-04</internalNodes>
      <leafValues>
        2.4376301467418671e-01 -2.3392017185688019e-01</leafValues></_>
    <_>
      <internalNodes>
        0 -1 146061 9.8473846912384033e-02</internalNodes>
      <leafValues>
        -2.4734915792942047e-01 2.4443480372428894e-01</leafValues></_>
    <_>
      <internalNodes>
        0 -1 44537 -1.0734245181083679e-02</internalNodes>
      <leafValues>
        -8.1174945831298828e-01 7.2327978909015656e-02</leafValues></_>
    <_>
      <internalNodes>
        0 -1 110989 -1.6024440526962280e-01</internalNodes>
      <leafValues>
        3.7727534770965576e-01 -1.7371322214603424e-01</leafValues></_>
    <_>
      <internalNodes>
        0 -1 217949 -2.5936349993571639e-04</internalNodes>
      <leafValues>
        -3.3262246847152710e-01 1.6489961743354797e-01</leafValues></_></weakClassifiers></stage4>
</opencv_storage>
